528 100
영화/Noun -0.042631894 -0.10262577 0.37880155 0.028588951 0.28378326 -0.20787519 0.015643204 -0.099321991 -0.20240453 -0.16061133 -0.066426657 0.01112443 0.083655074 0.018520556 0.0086073875 -0.0047748946 0.12665457 -0.065967247 -0.036414959 0.069636308 -0.040138245 0.17554814 0.023911173 -0.016466504 0.092607364 0.098421291 0.14655904 0.098865628 0.094154306 0.015213422 -0.095801152 0.089724712 0.11621799 -0.1688986 -0.17411083 -0.12098346 -0.040637024 -0.11196497 0.17136042 0.0046864813 -0.12175927 -0.089128666 -0.0097040068 0.30477545 0.081143342 0.13119574 -0.1824798 0.11348426 -0.03767778 0.20339869 0.19653349 -0.10572989 0.089388996 -0.1734069 -0.082929015 0.13892958 -0.052258544 0.02139941 0.020672556 -0.027757507 0.2673963 -0.16078681 0.070626087 0.068702452 -0.14009026 0.07645911 0.051037192 0.12894313 -0.063237458 -0.090445906 0.081348062 0.026632523 -0.067569599 -0.02000883 0.12659989 0.27079514 -0.027195098 0.094332717 0.041304842 -0.20652965 -0.0016654653 -0.064820334 0.046343189 -0.065827012 0.030850071 0.1536649 -0.058030363 -0.03704372 0.008567553 -0.010138861 0.077473469 -0.064103298 -0.14678985 -0.23741783 -0.16719072 -0.008649894 -0.23550425 0.02946754 0.034213815 -0.20119408
하다/Verb -0.056009632 -0.088714987 0.38543412 0.017595697 0.27522451 -0.22000314 0.016666001 -0.10876281 -0.20033781 -0.15084922 -0.066400878 0.013528978 0.085583329 0.013991609 0.015426406 -0.014203721 0.13480482 -0.089545071 -0.043614753 0.066734962 -0.035184227 0.1981402 0.029328723 -0.024506999 0.094287656 0.10129685 0.14496896 0.10705844 0.075160444 0.010566856 -0.088929899 0.092194386 0.13277973 -0.17439379 -0.18777798 -0.13520978 -0.056467321 -0.10402737 0.16766298 -0.00453099 -0.11174318 -0.090317555 -0.011265693 0.32737714 0.091385297 0.13523662 -0.19313204 0.10906095 -0.04443793 0.20661318 0.19983409 -0.10285823 0.086458676 -0.16903757 -0.087936327 0.14209731 -0.054444093 0.012991779 0.020772021 -0.026047336 0.28882021 -0.15844527 0.065690279 0.082465105 -0.14201023 0.081612423 0.060647074 0.14178459 -0.075977035 -0.085462689 0.088779047 0.019619575 -0.069464721 -0.0072434554 0.12154808 0.27726361 -0.040706351 0.091704302 0.061507646 -0.2262006 -0.0023084937 -0.071526445 0.053769257 -0.086475126 0.040919229 0.14716865 -0.06970533 -0.022305179 -0.0049359547 -0.0092707844 0.0697366 -0.067959718 -0.13875806 -0.24468906 -0.17018875 0.0056597954 -0.24019723 0.058937583 0.036139596 -0.19964762
최고/Noun -0.040079609 -0.09734083 0.35217988 0.0072697955 0.27174643 -0.19885269 0.029138973 -0.093648642 -0.18059765 -0.14319824 -0.045200929 0.019240433 0.073656812 0.009469144 -0.010026422 -0.016114341 0.12718512 -0.066112429 -0.036984801 0.062629104 -0.040803596 0.17997833 0.034453522 -0.017021881 0.080324009 0.10441105 0.12863666 0.1062098 0.064007021 0.0044050249 -0.10030398 0.076407388 0.10175692 -0.16184027 -0.16284107 -0.12211255 -0.042919941 -0.11551698 0.15026116 -0.010059462 -0.11348409 -0.094972633 -0.019449973 0.28042585 0.067032173 0.13086811 -0.17547649 0.10776316 -0.037134521 0.19599278 0.18058968 -0.10952477 0.070215754 -0.16225173 -0.071013898 0.11718355 -0.043772832 0.013578579 0.031750485 -0.0078051137 0.26385534 -0.14747497 0.069939069 0.066994302 -0.13223442 0.065391228 0.043025147 0.1272977 -0.056176942 -0.086922958 0.071729794 0.026336605 -0.053659458 -0.017272796 0.12014849 0.27295038 -0.031973477 0.086659253 0.033279415 -0.18947436 -0.018010857 -0.07667926 0.053503878 -0.065982632 0.03334707 0.13374133 -0.055339441 -0.04100417 0.0044648005 -0.015411619 0.07680586 -0.068132572 -0.13093083 -0.23096505 -0.16129448 -0.0026433817 -0.22987063 0.043370206 0.045914263 -0.19166151
보다/Verb -0.034035228 -0.10468559 0.3776347 0.0064004585 0.28890768 -0.21097215 0.018084811 -0.10029624 -0.20397522 -0.15131818 -0.045933582 0.017262025 0.075720228 0.019646779 0.0062350044 -0.011437308 0.12909202 -0.074169785 -0.029711833 0.057875011 -0.056423735 0.19382501 0.013278387 -0.013744301 0.081355184 0.10622593 0.13185267 0.088949621 0.064621449 0.016135786 -0.11023709 0.087513819 0.1202111 -0.16987194 -0.18818457 -0.13888802 -0.063106932 -0.13047935 0.16193493 -0.013856906 -0.12983979 -0.090532087 -0.015719902 0.31690904 0.082951076 0.12787278 -0.18579194 0.10729243 -0.038908672 0.20730174 0.21538684 -0.11365815 0.073840894 -0.17146347 -0.08629375 0.14171642 -0.037232131 0.018251128 0.029056644 -0.017626913 0.28289357 -0.15045136 0.063354492 0.06525068 -0.14237472 0.060202118 0.062635019 0.12693353 -0.072857961 -0.088210396 0.079148084 0.024263764 -0.070620187 -0.022838874 0.12527139 0.27567649 -0.027936531 0.096218407 0.057252072 -0.19941331 -0.0066532395 -0.083358251 0.0512207 -0.064219691 0.032090779 0.13776647 -0.071929179 -0.041080259 0.0061138966 -0.0012792011 0.06531211 -0.056381892 -0.14727461 -0.23923501 -0.17591679 -0.0034352692 -0.23948604 0.022908377 0.052077238 -0.19755189
정말/Noun -0.069601074 -0.10882093 0.3614988 0.022556031 0.25143903 -0.16301844 0.016774276 -0.084318236 -0.19411023 -0.12813272 -0.05420462 0.018009432 0.08858005 0.047111474 -0.018999377 8.5351712e-06 0.13076447 -0.083238497 -0.018891184 0.058052484 -0.024280667 0.21986289 0.051496357 -0.049355242 0.12205947 0.088068865 0.14612961 0.11455292 0.05699718 0.0080849724 -0.06447307 0.053502303 0.098494805 -0.17800456 -0.17544551 -0.11945573 -0.037096135 -0.092083447 0.17034808 0.011510328 -0.13292639 -0.10629936 -0.017817538 0.27546164 0.087081648 0.14711751 -0.21618216 0.067337602 -0.046620078 0.17751716 0.20307164 -0.1248588 0.086341962 -0.14893746 -0.077085182 0.11845128 -0.08131811 0.024211407 0.00560418 -0.016298542 0.27606726 -0.13967821 0.064027943 0.1003765 -0.11258632 0.039431628 0.075038917 0.098481387 -0.098867282 -0.11431653 0.07101737 0.038618542 -0.041280769 -0.021985607 0.15020163 0.23247309 -0.0057034572 0.078333415 0.066926278 -0.2247469 -0.017722823 -0.081846282 0.053717416 -0.10925747 0.022876307 0.14415725 -0.05916211 -0.02215793 -0.010426259 -0.018851843 0.05489162 -0.01779093 -0.14809205 -0.20889194 -0.16194652 -0.0039191726 -0.23275296 0.072011448 0.049470749 -0.21424875
명작/Noun -0.047046542 -0.10469542 0.36223835 0.012751904 0.26486447 -0.19284287 0.018249262 -0.09132158 -0.20035332 -0.1384633 -0.064330943 0.0054080826 0.089928336 0.023834886 -0.0091216937 -0.014952493 0.12589338 -0.06724669 -0.027824892 0.064492822 -0.054017965 0.19809212 0.035643462 -0.02903638 0.11116457 0.10228486 0.14114888 0.11097309 0.075715102 0.0012331007 -0.089269415 0.077742152 0.10696802 -0.16502129 -0.17719314 -0.13037142 -0.03562934 -0.10267108 0.1665504 -0.0103558 -0.12618195 -0.098503157 -0.0153777 0.28971389 0.08494097 0.14076181 -0.19906124 0.076433145 -0.03946209 0.19470875 0.19106776 -0.1165541 0.088914432 -0.15820521 -0.083229221 0.125772 -0.06391418 0.013624001 0.016447587 -0.020730954 0.27657157 -0.13484801 0.064428583 0.088531703 -0.12762471 0.053812101 0.071773939 0.11571088 -0.068792231 -0.095865488 0.076724686 0.031411078 -0.053326689 -0.025780076 0.1433354 0.25359115 -0.030715197 0.095374972 0.050532348 -0.20495345 -0.0057816012 -0.06771937 0.054550946 -0.080828436 0.031021385 0.14799894 -0.062194146 -0.013115199 0.0090525784 -0.026178902 0.065898851 -0.038851716 -0.13513447 -0.21490999 -0.1738013 0.0084901219 -0.2281898 0.062145889 0.041925445 -0.19979188
감동/Noun -0.076310463 -0.10571465 0.36728349 0.025759222 0.2371203 -0.154263 0.012824886 -0.076377571 -0.19318904 -0.12826402 -0.061606515 0.02071948 0.090072215 0.049967241 -0.029809512 -0.0024577423 0.14244148 -0.090761989 -0.0018911471 0.062201284 -0.034906026 0.226456 0.057997975 -0.058128648 0.14043118 0.08912231 0.15747423 0.12025915 0.069814213 -0.0048900936 -0.060436338 0.049607005 0.091885321 -0.17535844 -0.16311145 -0.11164117 -0.031696167 -0.088750765 0.17311132 0.0039881337 -0.14491045 -0.10350245 -0.027906153 0.26957914 0.091878965 0.14939015 -0.21603888 0.047751162 -0.046520323 0.17759135 0.20330368 -0.13456288 0.10231742 -0.14352959 -0.08655116 0.11304476 -0.08428096 0.020972857 0.011393804 -0.019122742 0.28653353 -0.13382123 0.073695332 0.11052625 -0.11156865 0.027716897 0.080300853 0.088084824 -0.090712197 -0.11407363 0.065915801 0.044651695 -0.04139683 -0.032646764 0.16165957 0.2395156 -0.0063432492 0.089548036 0.072598338 -0.22246435 -0.01802795 -0.091461599 0.065418705 -0.12787791 0.02770623 0.15160112 -0.055826116 -0.0056658718 -0.0062691192 -0.024238124 0.058305603 0.0021681243 -0.14436634 -0.20119248 -0.16689721 0.0093372948 -0.22900225 0.091514461 0.050068788 -0.21928564
재밌다/Adjective -0.051898543 -0.09658701 0.36377949 0.014848592 0.27449092 -0.18255723 0.019266063 -0.095083095 -0.18828413 -0.15352198 -0.050243426 0.015508249 0.090000361 0.02796484 0.0069653564 -0.0095429327 0.13569099 -0.067731313 -0.018230151 0.067676142 -0.055257797 0.1878401 0.022233408 -0.019074699 0.096632011 0.092553906 0.14409493 0.093847044 0.07343711 0.015225635 -0.10159963 0.090703875 0.10859328 -0.17831308 -0.17287418 -0.13311879 -0.057419322 -0.11817318 0.15441266 -0.016779672 -0.12854671 -0.081289299 -0.015044226 0.30509377 0.075883701 0.13461439 -0.17845826 0.10065782 -0.046568699 0.19506791 0.20844334 -0.12000292 0.067770392 -0.16636269 -0.083185457 0.12299383 -0.044222463 0.021390636 0.021690043 -0.01306802 0.27768257 -0.15691601 0.060670707 0.063675731 -0.13623564 0.05681289 0.063273631 0.12255984 -0.078102253 -0.08913397 0.076812565 0.030148502 -0.069148116 -0.026779383 0.12431429 0.26005128 -0.037298895 0.095186546 0.056428328 -0.2060411 -0.017337931 -0.088753879 0.051378053 -0.082583897 0.043115254 0.13182198 -0.073251881 -0.030350816 0.0095121758 -0.0031339214 0.062078372 -0.050642528 -0.1545922 -0.22038189 -0.1745698 0.013867035 -0.22830409 0.036733091 0.048689868 -0.2072936
없다/Adjective -0.063718453 -0.097719587 0.38747051 0.01464133 0.27617982 -0.19859676 0.010347136 -0.1071631 -0.19631687 -0.15761881 -0.070869274 0.021874327 0.074021406 0.014655216 0.0046950891 -0.0056138746 0.13655747 -0.076515526 -0.024388723 0.071054265 -0.04363149 0.21130279 0.027170144 -0.024052881 0.098619513 0.10737133 0.15733697 0.10645041 0.088481858 0.0066967648 -0.087193765 0.084220655 0.11608187 -0.16608426 -0.18114464 -0.13158412 -0.043399513 -0.098000079 0.16129136 -0.0045973407 -0.11161342 -0.086654581 -0.0071894298 0.31321692 0.085608475 0.1321243 -0.19744064 0.093714043 -0.039440315 0.20546061 0.20564736 -0.11533649 0.084463604 -0.16413732 -0.090510808 0.13716029 -0.060889974 0.015797487 0.019360216 -0.012201593 0.2845926 -0.15534386 0.054685041 0.0890112 -0.13478562 0.065754466 0.051361296 0.11388251 -0.075234443 -0.094464399 0.093749493 0.026652426 -0.07755705 -0.024490466 0.13278709 0.27581921 -0.031978287 0.092147544 0.052860923 -0.22291414 -0.011642897 -0.070742354 0.04402969 -0.096676148 0.044890646 0.1537796 -0.06154234 -0.02309121 -0.011313833 -0.013319696 0.064686887 -0.044518199 -0.13531281 -0.22641166 -0.16774489 -0.0039721536 -0.24887466 0.067690633 0.038247734 -0.20927504
있다/Adjective -0.058510549 -0.095117755 0.38974464 0.018642081 0.27814651 -0.21056341 0.014007829 -0.10064176 -0.19655155 -0.14403218 -0.074031562 0.011503851 0.079596929 0.019215249 0.011655447 -0.010506073 0.14387816 -0.080983177 -0.026320087 0.062675983 -0.036802858 0.20534509 0.02932138 -0.023360755 0.1097782 0.101367 0.15439923 0.10207269 0.077627987 0.0026782786 -0.090272494 0.082250163 0.12226753 -0.16668557 -0.17845112 -0.12857774 -0.046539832 -0.10910229 0.16230899 0.0010483968 -0.1195018 -0.098682344 -0.010247459 0.31490946 0.082449764 0.1394221 -0.19435021 0.090144701 -0.044938836 0.20946248 0.21427633 -0.11473374 0.088433586 -0.16806406 -0.082411528 0.13595615 -0.060919505 0.011803664 0.018581813 -0.019435877 0.2868025 -0.15660886 0.054658536 0.07987158 -0.1404209 0.074022576 0.059625305 0.12895793 -0.068331003 -0.09358719 0.094892181 0.029442528 -0.075672254 -0.017796937 0.14125048 0.27607882 -0.027716208 0.098821178 0.053007983 -0.22416858 -0.011065397 -0.075842679 0.049347531 -0.095234439 0.053475894 0.14679392 -0.074283093 -0.025618911 -0.0030924832 -0.019264428 0.061757494 -0.044685654 -0.14157921 -0.22262688 -0.16469823 0.0015312249 -0.24003097 0.053384256 0.037325568 -0.21434622
너무/Noun -0.047404043 -0.10216477 0.37459737 0.0029654847 0.2739858 -0.19529143 0.023641014 -0.081064045 -0.20399375 -0.15127161 -0.057494774 0.020135295 0.080477685 0.026673112 0.0053643165 -0.01896804 0.13413562 -0.062752411 -0.034698699 0.048367765 -0.041667424 0.19536698 0.0077921981 -0.0094912881 0.11006455 0.094309747 0.13316995 0.10042651 0.068982795 0.0067307213 -0.097912923 0.079422683 0.12783107 -0.16914201 -0.17449304 -0.13305736 -0.05882024 -0.12092732 0.16070309 0.0011335898 -0.12162564 -0.086442851 -0.014002676 0.29455191 0.079425283 0.1224626 -0.18587312 0.097498469 -0.053982593 0.18470328 0.21541457 -0.1113227 0.076772384 -0.1750868 -0.088129245 0.12177101 -0.041361749 0.02142695 0.015617889 -0.010048519 0.27093989 -0.14582071 0.050097957 0.052424926 -0.1323301 0.062315416 0.06242894 0.11650764 -0.081419729 -0.10058696 0.083416745 0.029056571 -0.073379003 -0.027980445 0.12246032 0.25452495 -0.030850962 0.088466398 0.070827171 -0.20629498 -0.015082714 -0.079858236 0.050422873 -0.07337489 0.031581014 0.13260075 -0.069464996 -0.021101924 -0.0023254135 0.0049541118 0.052538402 -0.057250377 -0.15739968 -0.21605183 -0.16604161 -0.00067015231 -0.22116236 0.034361351 0.037783053 -0.19854148
좋다/Adjective -0.054028954 -0.10215431 0.38171339 0.0068197134 0.27173844 -0.18201381 0.024622982 -0.084053099 -0.20386539 -0.14864647 -0.060178913 0.013926893 0.082550451 0.022129709 -0.0090933256 -0.0063159894 0.13640127 -0.071968369 -0.016757188 0.061842989 -0.050681137 0.20799646 0.034771465 -0.023083776 0.10171057 0.10072424 0.14212978 0.10714141 0.077186123 0.011247414 -0.09013553 0.072266288 0.11917242 -0.17641139 -0.17921367 -0.1246121 -0.043158904 -0.11564054 0.16082577 -0.0049279006 -0.13356377 -0.090835437 -0.01777797 0.30063099 0.083502948 0.13386476 -0.19309239 0.0886079 -0.048618998 0.19841073 0.20647629 -0.12676695 0.075617589 -0.16611306 -0.082895622 0.12432382 -0.051311113 0.016261851 0.012473932 -0.014540558 0.27458844 -0.14006338 0.061412916 0.085108429 -0.12463735 0.04893291 0.063020222 0.12222046 -0.072743028 -0.091895163 0.077741742 0.038088802 -0.063974515 -0.023923462 0.14062338 0.266866 -0.031743135 0.091800876 0.060351852 -0.21644156 -0.016033784 -0.087687805 0.05901549 -0.082612351 0.033442117 0.13869268 -0.069058411 -0.024436936 -0.004058525 -0.0035193202 0.066465437 -0.044813089 -0.14808303 -0.22368708 -0.17368385 0.012935199 -0.23878217 0.057287175 0.044757213 -0.21294102
되다/Verb -0.052549504 -0.10226632 0.38607338 0.0067150276 0.28044054 -0.20238166 0.023568785 -0.087323643 -0.2050053 -0.15270612 -0.064450726 0.015374861 0.078507952 0.03075953 -0.0066590924 -0.017030211 0.1345609 -0.088224322 -0.033554673 0.058184974 -0.039485022 0.20527521 0.037350908 -0.034450181 0.12826975 0.097637594 0.14333385 0.11414014 0.077959366 0.00049032352 -0.082489699 0.080037877 0.12584798 -0.16761842 -0.18904856 -0.13119256 -0.044219155 -0.10013291 0.17269424 -0.010377863 -0.13377102 -0.097815447 -0.012475604 0.3125622 0.086250141 0.1505722 -0.20597638 0.080660306 -0.045733254 0.20866328 0.20569101 -0.12663725 0.09677428 -0.16476774 -0.090728626 0.13821183 -0.058274508 0.013755032 0.025739085 -0.0069436892 0.28755027 -0.14907101 0.064742938 0.095593266 -0.13836022 0.058631927 0.070867121 0.11501678 -0.077637404 -0.099216029 0.086115383 0.036749329 -0.062549189 -0.026000654 0.1419308 0.26310751 -0.02245838 0.095917642 0.064743236 -0.23265535 -0.016801404 -0.067554884 0.065751582 -0.096526563 0.043438401 0.15359649 -0.072957315 -0.010590906 -0.0077073132 -0.011359207 0.070097201 -0.041317422 -0.15258794 -0.2252509 -0.17806076 0.0036342959 -0.25230992 0.070187628 0.05234893 -0.22285578
않다/Verb -0.047981776 -0.10645261 0.39908379 0.020816952 0.29605845 -0.20945276 0.032361191 -0.095862769 -0.21563883 -0.16383754 -0.061977409 0.0090090316 0.095326066 0.014435894 0.0057396889 -0.010313586 0.13754347 -0.074655212 -0.014504011 0.072287962 -0.055567998 0.22312224 0.019221533 -0.023986418 0.11700527 0.1095109 0.14604472 0.10463387 0.094716318 -0.00012356996 -0.096380308 0.078662589 0.13212977 -0.1843911 -0.18774566 -0.13839617 -0.044550672 -0.1166364 0.18820749 -0.01975935 -0.12183161 -0.096916549 0.0016607636 0.31340122 0.09521433 0.13623963 -0.21553938 0.10872629 -0.051655587 0.19674401 0.21930835 -0.11924802 0.091158986 -0.17326565 -0.088479228 0.14148879 -0.061824109 0.0366253 0.020066353 -0.0073425635 0.27624899 -0.1529232 0.058756042 0.0909703 -0.12636003 0.071942128 0.059720755 0.11630037 -0.080419034 -0.086898215 0.09084449 0.031466566 -0.083581492 -0.030121226 0.15271169 0.26948577 -0.023104504 0.10583126 0.065687478 -0.23062402 -0.01340571 -0.07138399 0.050735977 -0.076709896 0.04452306 0.15378167 -0.072820842 -0.0081798444 0.0053518317 -0.016899765 0.057143468 -0.046415016 -0.15059622 -0.23921205 -0.17577218 0.014340797 -0.25705197 0.060308564 0.028723959 -0.21155646
인생/Noun -0.047218606 -0.089799576 0.34356296 0.011014298 0.24739864 -0.17941849 0.024753479 -0.083164074 -0.17635247 -0.13690498 -0.049766526 0.0074385758 0.070617102 0.021984277 -0.00022673215 -0.0083066151 0.12078217 -0.070451945 -0.032265343 0.056273438 -0.030485678 0.1796841 0.044446584 -0.02047104 0.092204168 0.087875955 0.12699895 0.092462756 0.072295718 0.0040669893 -0.079911754 0.073322371 0.096437126 -0.14358707 -0.15552086 -0.11858717 -0.034864664 -0.094518878 0.14499162 -0.0088989632 -0.12002918 -0.09052372 -0.022389745 0.26809669 0.06993036 0.12375406 -0.17862475 0.088734001 -0.039472461 0.18280683 0.18260038 -0.1082751 0.083519757 -0.14846964 -0.071384102 0.12630378 -0.054651961 0.014634978 0.023061 -0.021867661 0.24934229 -0.1351158 0.060818542 0.07813853 -0.12268341 0.052085124 0.055320337 0.11645771 -0.062523954 -0.083444357 0.071838357 0.030458078 -0.057760779 -0.020823963 0.12933965 0.23893461 -0.01960033 0.08348164 0.040953975 -0.19714324 -0.0057168626 -0.068996765 0.05143144 -0.082994148 0.038575117 0.12912431 -0.055693086 -0.016304206 0.0038889416 -0.020709842 0.060810942 -0.040247265 -0.12045985 -0.20671254 -0.1468465 -0.0062774224 -0.2163648 0.053592511 0.037820816 -0.19274893
진짜/Noun -0.049216688 -0.09210512 0.35768276 0.010666228 0.26754779 -0.1801427 0.013900944 -0.091796927 -0.1919588 -0.1396337 -0.05689916 0.0190822 0.077353835 0.029373718 0.0041331137 -0.0092323115 0.12888469 -0.066199116 -0.028537285 0.062406622 -0.043898657 0.19021484 0.031870123 -0.022531368 0.11161199 0.086120546 0.13971715 0.094898023 0.07026802 0.0029832101 -0.089844823 0.07355804 0.11271979 -0.17075151 -0.16833669 -0.12602103 -0.042186584 -0.10173707 0.16347861 -0.001896769 -0.11712351 -0.089195915 -0.019965963 0.27827728 0.084379442 0.13137883 -0.18395783 0.087992944 -0.044443753 0.1827894 0.19823709 -0.11670241 0.084657922 -0.15216443 -0.076017976 0.12132103 -0.051011134 0.014904344 0.019691857 -0.010035579 0.27063301 -0.14633198 0.060654536 0.071669258 -0.12139212 0.061876107 0.054829698 0.11389881 -0.077183001 -0.098876923 0.080867909 0.031085644 -0.061940741 -0.020141091 0.1288546 0.24472603 -0.017466515 0.080156617 0.055378821 -0.20313242 -0.020865919 -0.074655503 0.049550604 -0.089829825 0.034887064 0.1337494 -0.059389807 -0.021750111 -0.00012337204 -0.004874439 0.059728924 -0.039761029 -0.13525113 -0.21373066 -0.15663505 0.0040378072 -0.22360718 0.052028853 0.046993647 -0.20431794
재미있다/Adjective -0.054750692 -0.10146834 0.37167913 0.0092817042 0.26531324 -0.17963006 0.017930711 -0.09666986 -0.19743221 -0.15183952 -0.059513096 0.011309792 0.082244977 0.020715585 1.5674243e-05 -0.015364433 0.1304241 -0.073288321 -0.022806536 0.063790508 -0.047260262 0.19148153 0.030662611 -0.013495063 0.093140505 0.097479172 0.1415208 0.096098982 0.079874136 0.01445344 -0.096926115 0.084866241 0.10403449 -0.17365649 -0.17357543 -0.123818 -0.049725879 -0.11789113 0.15245765 -0.014216498 -0.11583285 -0.090541795 -0.018067403 0.29214889 0.08464399 0.13913289 -0.18307069 0.090611868 -0.044310007 0.1912957 0.20257162 -0.12241955 0.069464505 -0.17108966 -0.086513497 0.12164794 -0.044350773 0.020867845 0.026887143 -0.018551426 0.27525875 -0.14765862 0.055905908 0.06641306 -0.12787554 0.050999355 0.059263188 0.11696636 -0.072851039 -0.094193116 0.074630544 0.032627594 -0.064947203 -0.021121753 0.12897588 0.25627378 -0.035594001 0.090203427 0.055292826 -0.20477222 -0.012919106 -0.091305591 0.048568368 -0.082842566 0.041475914 0.13667798 -0.070981495 -0.028970156 0.0014719963 -0.0034916406 0.062576666 -0.03977612 -0.14866687 -0.21820039 -0.16920608 0.012047996 -0.2264024 0.042726487 0.047282632 -0.19962563
이렇다/Adjective -0.042949263 -0.096959151 0.36883903 0.013165822 0.26545051 -0.19913471 0.018558338 -0.10013182 -0.19668072 -0.14927931 -0.058304042 0.012521693 0.075863004 0.021587668 -0.0015917567 -0.019433009 0.1338577 -0.070871502 -0.032913905 0.056246135 -0.043278053 0.19310649 0.042795416 -0.019267803 0.10248227 0.10217109 0.13690676 0.099978752 0.069549389 0.0029864104 -0.092362411 0.071688734 0.11885739 -0.16395773 -0.18099639 -0.12459826 -0.040179793 -0.10103144 0.15177765 -0.0070438753 -0.1242697 -0.094841927 -0.020862769 0.29638609 0.09022221 0.12729773 -0.18818848 0.10133224 -0.035177842 0.20152506 0.20152929 -0.1132204 0.072515197 -0.1595656 -0.078714602 0.12708218 -0.053663861 0.019636067 0.024782501 -0.015956787 0.27104643 -0.13985367 0.07031408 0.093035974 -0.13966464 0.064154766 0.057371132 0.12993753 -0.070601784 -0.092298545 0.078115046 0.025810648 -0.054923199 -0.02050923 0.13653994 0.25444978 -0.026474843 0.093643583 0.048642293 -0.21642078 -0.01341748 -0.07675989 0.051765777 -0.077644251 0.032055605 0.14200792 -0.062128525 -0.024934474 -0.00022986163 -0.019014675 0.06677451 -0.04496159 -0.1398229 -0.22934961 -0.16949889 -0.003192063 -0.23592845 0.051740173 0.043786254 -0.19570254
지금/Noun -0.043254215 -0.10408279 0.37350848 0.013043021 0.27238104 -0.1923825 0.02506388 -0.10116419 -0.19218953 -0.14529032 -0.061926089 0.0053635063 0.075691454 0.025575303 0.0093663326 -0.012697396 0.13380699 -0.068272434 -0.019245317 0.065874025 -0.050240085 0.19585775 0.027982151 -0.022243375 0.10406523 0.093000554 0.13566853 0.10038193 0.081309952 0.0093804169 -0.095606618 0.08051005 0.1201731 -0.1658811 -0.1788653 -0.1265794 -0.053104661 -0.11205417 0.16368751 -0.0057212389 -0.12850197 -0.094361037 -0.019556066 0.30697253 0.084607199 0.13565595 -0.18893321 0.10298883 -0.038698681 0.19733742 0.20493479 -0.11950736 0.089902982 -0.16253024 -0.079535544 0.13404329 -0.058361784 0.014749836 0.011654057 -0.014380625 0.28292039 -0.14753984 0.061918084 0.073647961 -0.13111381 0.0696235 0.056374781 0.12552665 -0.076547697 -0.088540003 0.083423667 0.029980538 -0.061105523 -0.023343049 0.13469349 0.26249397 -0.019370368 0.095459513 0.053655509 -0.21068655 -0.0087650232 -0.079221211 0.051724225 -0.072895132 0.028959794 0.14774115 -0.067875326 -0.021018501 0.0025678123 -0.0080671087 0.058266409 -0.053548448 -0.14233446 -0.22456466 -0.17847632 0.00411072 -0.24333759 0.03926878 0.048794448 -0.20726271
역시/Noun -0.053439245 -0.097334221 0.37653038 0.0081088236 0.2719315 -0.18727382 0.023168236 -0.085073985 -0.19062129 -0.13949698 -0.062560305 0.0049230708 0.082103141 0.024021707 -0.0009891619 -0.015054824 0.13393739 -0.072562814 -0.021091113 0.0661055 -0.04303712 0.2083316 0.039027907 -0.031052215 0.12178265 0.099590965 0.14998153 0.10659359 0.082208395 0.0042133494 -0.079297513 0.075446695 0.11368709 -0.16676286 -0.17038494 -0.1321272 -0.039904829 -0.098563276 0.17142895 -0.0014944745 -0.12183589 -0.10122959 -0.016796792 0.2876761 0.084646679 0.13305475 -0.19487877 0.080091834 -0.046261247 0.19627796 0.20209742 -0.12510166 0.087775819 -0.15131529 -0.078146659 0.12438598 -0.068007253 0.019581502 0.016129971 -0.018624566 0.28164008 -0.1412036 0.063121989 0.090464123 -0.13241094 0.054710653 0.068422295 0.10761133 -0.080480576 -0.10490908 0.086177722 0.036619212 -0.05350465 -0.023779344 0.14822149 0.25087094 -0.016611338 0.093188278 0.057654232 -0.21302964 -0.018239925 -0.072624415 0.05789651 -0.090254232 0.036181223 0.14644916 -0.058103923 -0.017455837 -0.0025067946 -0.017222211 0.064234369 -0.029115988 -0.13670079 -0.22059694 -0.16471589 0.0083402889 -0.22964597 0.0594966 0.047012415 -0.20409434
시리즈/Noun -0.051481724 -0.090631001 0.3616606 0.012107458 0.27218726 -0.19678976 0.025207268 -0.10221865 -0.20368658 -0.14902642 -0.050255645 0.016888335 0.077881731 0.012741145 0.011793026 -0.014068764 0.14422674 -0.071865104 -0.039273541 0.071487263 -0.030461479 0.19091661 0.035323832 -0.014422107 0.1166613 0.088405296 0.14771262 0.099029809 0.09099631 0.013354427 -0.090942465 0.080318265 0.11177847 -0.15367043 -0.16098148 -0.1228449 -0.038828187 -0.11044367 0.16336149 -0.011834842 -0.11652873 -0.095754378 -0.01472752 0.29414439 0.072371081 0.13072291 -0.18674807 0.10571285 -0.048507906 0.19875278 0.19243257 -0.11247026 0.078902394 -0.15566093 -0.077192724 0.14163968 -0.055183716 0.023539983 0.032076553 -0.023819325 0.27155837 -0.13669682 0.055826332 0.060986891 -0.12972996 0.062733263 0.049070008 0.11219073 -0.079836667 -0.091221921 0.090640195 0.041507121 -0.059376314 -0.0093678385 0.14533788 0.27206573 -0.017764971 0.094266996 0.048496444 -0.20472677 -0.028286122 -0.090105653 0.064886637 -0.092993401 0.05657107 0.14209494 -0.071314678 -0.024488004 0.011931255 -0.016978975 0.066242404 -0.050553419 -0.13449655 -0.22046317 -0.16963755 -0.0085503962 -0.22915205 0.033220708 0.047977805 -0.20166813
가다/Verb -0.06077572 -0.10163462 0.39557374 0.0091809714 0.28773662 -0.1996782 0.019385515 -0.097219042 -0.21146905 -0.15426163 -0.062686861 0.012462082 0.088960581 0.023582522 0.0079646129 -0.017750595 0.13766986 -0.08213678 -0.030897457 0.063745663 -0.033952117 0.20031887 0.033109311 -0.02028051 0.11388254 0.09991578 0.15484156 0.10147107 0.081852816 0.0049264808 -0.09233959 0.072462417 0.12183491 -0.171491 -0.18393789 -0.13042793 -0.045203727 -0.11292772 0.17040862 -0.0025425148 -0.12456544 -0.094694294 -0.019025335 0.31184563 0.088965215 0.13529058 -0.19648108 0.084959731 -0.054912411 0.20884366 0.21585588 -0.11753763 0.10015017 -0.165543 -0.081351779 0.1362118 -0.060343016 0.020402323 0.021161105 -0.022307009 0.29595622 -0.14839199 0.064479567 0.077856854 -0.14152947 0.057923682 0.063916244 0.12651128 -0.080820419 -0.099507265 0.086714752 0.040696546 -0.072854586 -0.017814381 0.13752511 0.2619102 -0.022667425 0.093759194 0.054425564 -0.22420736 -0.015566199 -0.073032215 0.060340919 -0.093154252 0.045984898 0.15205792 -0.072712101 -0.018515786 -0.0042520766 -0.01249501 0.059592508 -0.044951402 -0.14625025 -0.23137887 -0.1787353 0.0067018643 -0.25648829 0.053747956 0.038072538 -0.2072275
캡틴/Noun -0.38447079 -0.26557204 0.51908076 0.20756349 0.093690649 0.069993749 -0.12324796 0.20265508 -0.19748025 0.12729195 -0.03141525 0.020030936 0.23163667 0.32531065 -0.27369669 -0.055853736 0.26239955 -0.32006598 0.22959982 0.14446832 0.091930456 0.63610536 0.47469175 -0.40545291 0.59135401 0.071482018 0.35967839 0.37592632 0.058953546 -0.092059426 0.20012128 -0.13306497 -0.010643221 -0.28932226 -0.11798123 -0.079202719 0.16212505 0.16400027 0.35137329 0.089531466 -0.37158939 -0.32172316 -0.1748575 0.087202579 0.11307326 0.36648703 -0.66321331 -0.40757623 -0.22293772 0.076168917 0.21550247 -0.30725166 0.41274163 0.0598468 -0.13515109 0.13726333 -0.42231789 -4.4428365e-05 0.0085080154 0.015025157 0.54334247 0.061374456 0.22979346 0.52721161 -0.068328865 -0.20408741 0.4744533 -0.19078067 -0.36278245 -0.49742925 -0.0015406871 0.34049463 0.057826519 -0.11055782 0.56516296 -0.0085634002 0.1851678 0.09076795 0.26763847 -0.4766109 -0.028637432 -0.12515751 0.27001253 -0.61376601 0.013565624 0.31323612 -0.027527433 0.28129902 0.070315145 -0.20436636 -0.022874681 0.49150375 -0.30771801 -0.13393907 -0.20842946 0.13845183 -0.27698269 0.51062697 0.20756762 -0.51008725
다시/Noun -0.037344627 -0.10543086 0.37177637 0.0065853419 0.2672444 -0.18412791 0.01916936 -0.096833616 -0.19419023 -0.15050365 -0.055447984 0.012412254 0.08248613 0.019919816 0.012776764 -0.0059999903 0.12362624 -0.064581178 -0.020362064 0.05515876 -0.045444012 0.19343683 0.035949923 -0.016107926 0.091022074 0.09429042 0.13513753 0.10307917 0.070392251 0.0023253218 -0.09180028 0.07077349 0.12329552 -0.17337555 -0.18156904 -0.12319443 -0.04491026 -0.11283544 0.15856758 -0.011773481 -0.11795969 -0.097112909 -0.0095599052 0.29172567 0.081349261 0.12952933 -0.19162466 0.098102868 -0.040914539 0.18870577 0.20013799 -0.10495353 0.072895139 -0.17202599 -0.086063437 0.12586433 -0.056524821 0.014313572 0.0051868255 -0.024524968 0.27567723 -0.1508943 0.059096999 0.078209139 -0.12878406 0.064236693 0.058685016 0.12895153 -0.078220472 -0.087302856 0.07982181 0.018072845 -0.057186108 -0.017893557 0.13424312 0.25084502 -0.031785693 0.086913593 0.048062067 -0.21571627 -0.0039616278 -0.075290509 0.045292113 -0.075951613 0.019530568 0.14067851 -0.057221316 -0.027426746 0.0046921037 -0.017459653 0.065198712 -0.057841945 -0.14214844 -0.22518419 -0.16826835 -0.0026484532 -0.22708789 0.039900005 0.044177055 -0.20447402
만들다/Verb -0.059134133 -0.094576277 0.39669231 0.0093844831 0.28883082 -0.21027766 0.019999787 -0.099203065 -0.20495565 -0.1422341 -0.067782193 0.0058190296 0.09105663 0.012731627 0.004487291 -0.012690511 0.14571318 -0.0801479 -0.030844541 0.067678005 -0.031692252 0.21226688 0.04194136 -0.025257479 0.10949102 0.10110369 0.13790467 0.10947907 0.073129155 0.012375455 -0.094026543 0.082159013 0.12199871 -0.17674457 -0.1829499 -0.13799399 -0.052812729 -0.11641169 0.16767387 -0.012901794 -0.1227374 -0.10076373 -0.019945074 0.32424033 0.090299048 0.13519113 -0.20028365 0.099630073 -0.043250002 0.20833284 0.21450177 -0.11749136 0.087472454 -0.17375894 -0.093592383 0.12961105 -0.060925007 0.023727 0.014429891 -0.014231073 0.29422921 -0.16103244 0.065199666 0.093255728 -0.14876562 0.062612198 0.06025533 0.12864891 -0.078038655 -0.093278341 0.089956395 0.027592927 -0.057380117 -0.016876673 0.14031227 0.26501426 -0.033534877 0.086719938 0.051268306 -0.2296304 -0.008233238 -0.080020688 0.055995714 -0.091969907 0.049852684 0.15365508 -0.072972372 -0.025701556 -0.0099221468 -0.020963378 0.06419187 -0.047033012 -0.14684173 -0.2412637 -0.17294098 -0.0051790164 -0.24117643 0.061407294 0.047228437 -0.20937248
마지막/Noun -0.076377891 -0.089924656 0.38488743 0.015133852 0.26048413 -0.16863261 0.011951732 -0.10026038 -0.19298972 -0.1608464 -0.086651564 0.012042058 0.1023477 0.064002819 -0.038850207 0.00035745715 0.16582818 -0.077864163 -0.032907572 0.072434962 -0.010294547 0.24045022 0.044263002 -0.036352836 0.12552555 0.096053131 0.14224708 0.1037641 0.06132222 0.0052036918 -0.073010013 0.056970634 0.10360968 -0.18302445 -0.1930007 -0.12464369 -0.054960068 -0.10376682 0.19669473 0.0075598299 -0.13257715 -0.11556976 -0.012360035 0.30040556 0.10446589 0.13942137 -0.23996638 0.067932792 -0.015550295 0.18829836 0.23622306 -0.1491832 0.075341113 -0.12784293 -0.08551906 0.12012089 -0.085535102 0.051845599 -0.003287409 -0.039503608 0.28877941 -0.14716393 0.076199576 0.08064203 -0.11872981 0.019173842 0.046041049 0.099215001 -0.097479664 -0.10422538 0.090994984 0.041213661 -0.029727923 -0.040094972 0.14282967 0.24960016 0.0047788811 0.085362695 0.08845751 -0.25445729 -0.015830636 -0.1223745 0.044686273 -0.1455126 0.027355302 0.13967693 -0.066485591 -0.036690373 -0.03787994 -0.012840088 0.082169659 -0.017673535 -0.13718128 -0.22651328 -0.17433196 0.012306821 -0.22896004 0.11808868 0.030980345 -0.23441996
이다/Verb -0.056944143 -0.097468033 0.37420607 0.0079936683 0.26633495 -0.19359109 0.026843645 -0.094611309 -0.20200098 -0.15081599 -0.055347729 0.0068677906 0.074575879 0.016293397 -0.0022614447 -0.0030634739 0.1337443 -0.063958615 -0.02755449 0.068959825 -0.045304809 0.19449687 0.036862172 -0.024787981 0.099906266 0.10082192 0.14312671 0.097110808 0.06849508 -0.0008064342 -0.08233986 0.078973077 0.10993984 -0.16704854 -0.18098448 -0.13082941 -0.049576122 -0.10957943 0.15936081 -0.011466274 -0.12955095 -0.097096056 -0.012635371 0.29134083 0.080179751 0.13633659 -0.19334704 0.10106201 -0.036300197 0.1892665 0.1941404 -0.11065292 0.089004874 -0.15624961 -0.080558077 0.13226743 -0.058044501 0.020847928 0.012503224 -0.025205173 0.26783088 -0.14050744 0.057930954 0.074565329 -0.12276027 0.054132242 0.054044399 0.11632548 -0.078295536 -0.087765366 0.076101393 0.026989741 -0.055176549 -0.026445286 0.13619271 0.26178125 -0.020316932 0.090590522 0.055883411 -0.20688957 -0.016222928 -0.078609057 0.051898375 -0.089075096 0.038351048 0.13608168 -0.06108566 -0.018064665 -0.002430886 -0.0064146025 0.066600107 -0.045891814 -0.14349833 -0.21283595 -0.17184384 -0.0028915904 -0.23134279 0.054274227 0.046047181 -0.21227992
같다/Adjective -0.046597064 -0.099632137 0.38340163 0.017313117 0.2784448 -0.19589961 0.025111947 -0.10437806 -0.19887249 -0.15186276 -0.055418149 0.0062237089 0.07735087 0.026125809 -0.0022748441 -0.0064619863 0.13973948 -0.07093586 -0.036404591 0.062609673 -0.039489623 0.1962568 0.03385441 -0.0197693 0.11182223 0.09600085 0.14468664 0.10149402 0.072478496 0.0044452716 -0.085793413 0.075795919 0.12504074 -0.16704248 -0.18089521 -0.12402844 -0.050025854 -0.11484428 0.16762537 -0.0071898969 -0.11822569 -0.090378597 -0.019065293 0.30497378 0.088796541 0.1362109 -0.19556639 0.10099992 -0.040515766 0.19477661 0.20399508 -0.12446583 0.079112031 -0.16848615 -0.077315629 0.13205764 -0.058719799 0.027565287 0.013516927 -0.022906622 0.2783024 -0.14223422 0.057361543 0.081524432 -0.13663733 0.06700284 0.064366266 0.11918961 -0.077453852 -0.095767885 0.083804369 0.03066208 -0.067468986 -0.015975341 0.12885474 0.2635515 -0.031696931 0.093713 0.054321405 -0.21379021 -0.01347606 -0.080316558 0.056126129 -0.088711418 0.03374717 0.15028851 -0.061904464 -0.023002965 -0.0050433008 -0.013534936 0.062704012 -0.045128886 -0.14624946 -0.23635481 -0.17347182 -0.0023899677 -0.24370973 0.053697199 0.035656143 -0.20755315
필요없다/Adjective -0.052621063 -0.096616559 0.35036623 0.01928095 0.247857 -0.18022208 0.016730161 -0.082892649 -0.18767567 -0.13334888 -0.057539899 0.014141923 0.082866602 0.019360753 -0.011413934 -0.018660277 0.122949 -0.074359365 -0.019060155 0.061469015 -0.038163889 0.1891567 0.041754361 -0.025625972 0.11699049 0.088411428 0.13272963 0.10998725 0.071096078 0.004304762 -0.07210426 0.071522817 0.099973835 -0.16385208 -0.16185205 -0.120552 -0.034289163 -0.097096428 0.15781713 0.0020539521 -0.12429815 -0.096493341 -0.021034148 0.27092487 0.079308145 0.12693639 -0.19085599 0.077397697 -0.048679508 0.18161714 0.18491839 -0.11334039 0.087772064 -0.15018964 -0.079667099 0.11720153 -0.063613661 0.017922809 0.011789002 -0.013435703 0.26443791 -0.13556577 0.064261317 0.087085716 -0.11308926 0.045060698 0.058135062 0.10672612 -0.076826625 -0.097080857 0.074291751 0.033046436 -0.057452727 -0.022012275 0.12904641 0.24050759 -0.020177867 0.088370346 0.049668204 -0.19645134 -0.0087808901 -0.065229207 0.05590013 -0.091101624 0.040020913 0.13347334 -0.056699909 -0.0092378221 0.0055441507 -0.015297963 0.062309183 -0.03068864 -0.12783347 -0.20819904 -0.15715049 0.0053733164 -0.21699451 0.062530257 0.045986399 -0.20134464
아니다/Adjective -0.050666418 -0.094007388 0.37795863 0.010189095 0.28427199 -0.20246235 0.024482662 -0.094234258 -0.20106211 -0.14693628 -0.06563215 0.01035454 0.081004545 0.022566898 -0.0022138974 -0.018721011 0.13644466 -0.073606558 -0.029222898 0.057417795 -0.035235438 0.20377232 0.039643396 -0.023443267 0.10612625 0.097801499 0.15045871 0.11001624 0.082703203 0.012004605 -0.093992271 0.07765995 0.1130571 -0.17096446 -0.18446696 -0.1270653 -0.050423771 -0.10647802 0.16456664 -0.0070567094 -0.12812121 -0.10065837 -0.010410203 0.30577582 0.087383986 0.13619593 -0.19822678 0.09728615 -0.051243167 0.2062034 0.20152894 -0.11617099 0.091869734 -0.16465743 -0.083379984 0.12916905 -0.056903213 0.012218267 0.017679067 -0.013816766 0.28952813 -0.15578887 0.061886348 0.085772619 -0.14310215 0.066140123 0.058508448 0.11961798 -0.072896771 -0.097231768 0.088173598 0.027376482 -0.0669939 -0.014190985 0.14149076 0.26574224 -0.02877276 0.094274193 0.054713774 -0.21198401 -0.019665506 -0.070476703 0.052517075 -0.081473254 0.046063427 0.14648946 -0.062503546 -0.02016997 -0.0020257265 -0.011261526 0.073263332 -0.040774826 -0.14140472 -0.2309483 -0.16897836 -0.0021458184 -0.2475661 0.056981828 0.042027049 -0.21777524
보고/Noun -0.050463524 -0.099400528 0.39269286 0.004248505 0.28109333 -0.18666171 0.022632439 -0.10668537 -0.20045514 -0.15891907 -0.057461087 0.0051094927 0.071890168 0.027120996 0.0080669243 -0.00019667318 0.12177009 -0.0841382 -0.02238364 0.051729098 -0.03742874 0.19645064 0.035336629 -0.022158375 0.095177814 0.09948615 0.13652384 0.10107085 0.062513106 0.0034203478 -0.10263645 0.080586821 0.1356656 -0.16709092 -0.19007798 -0.13679254 -0.064523235 -0.11815413 0.17097391 -0.0067261737 -0.12760895 -0.095674112 -0.013545946 0.31811067 0.080267534 0.1273033 -0.18372172 0.10147429 -0.031481661 0.21446186 0.20241265 -0.10569376 0.08697933 -0.16859522 -0.092308946 0.12733337 -0.048816565 0.0074159983 0.011935363 -0.015367308 0.29858401 -0.16395675 0.070023283 0.065535448 -0.1396071 0.056274299 0.053239897 0.1391868 -0.060579389 -0.086480543 0.079367734 0.023114897 -0.066964008 -0.021557955 0.13324048 0.27609101 -0.026123604 0.097521976 0.059608646 -0.21297415 -0.001562512 -0.079071984 0.060107592 -0.076877534 0.027484825 0.13928708 -0.064646088 -0.016659565 0.0016815059 -0.0096405493 0.052989762 -0.056917977 -0.13659073 -0.22312331 -0.17206253 0.0062606549 -0.2270796 0.041279409 0.037047662 -0.20699136
나오다/Verb -0.049181513 -0.095820554 0.38115814 0.016612817 0.27790019 -0.19737123 0.020334858 -0.094950415 -0.19263439 -0.15534002 -0.062428832 0.01017962 0.084175572 0.02175379 0.0080580255 -0.01547159 0.13225085 -0.073434778 -0.027958641 0.054358289 -0.033556014 0.20416646 0.030001869 -0.026067054 0.10233833 0.094670922 0.13224101 0.10502695 0.070979245 0.016660834 -0.10014644 0.06931518 0.12255927 -0.17199424 -0.18011191 -0.12687561 -0.045072217 -0.11756154 0.15935628 -0.0035133483 -0.12802096 -0.090042166 -0.013766874 0.30518124 0.089346975 0.13522397 -0.20017046 0.098958828 -0.034200657 0.1957449 0.21038178 -0.11701305 0.086206377 -0.15795559 -0.088187382 0.13109031 -0.05288361 0.016398627 0.010523279 -0.015935939 0.27173641 -0.15410367 0.057025857 0.081788383 -0.13885012 0.062576689 0.050880536 0.12723194 -0.07666935 -0.096170411 0.08192496 0.029815925 -0.055947322 -0.019947948 0.13682196 0.26933482 -0.025569875 0.09038645 0.052975379 -0.22067843 -0.012255729 -0.080074295 0.056944396 -0.07585723 0.032211501 0.14830086 -0.063490443 -0.01998925 0.0029078058 -0.018477736 0.063014261 -0.048082072 -0.14750335 -0.22854427 -0.16867377 -0.00013976963 -0.2397929 0.046820123 0.046620976 -0.20239186
재미/Noun -0.051011492 -0.091642998 0.37662888 0.0098143872 0.26556087 -0.2016688 0.021080773 -0.095895194 -0.20455828 -0.14992766 -0.073357098 0.0085267685 0.089916557 0.016749706 -0.00078468234 -0.019475406 0.137688 -0.080818258 -0.028374519 0.061853614 -0.035921477 0.20680986 0.037485417 -0.017755797 0.11576528 0.089424878 0.14700621 0.10312761 0.086496063 0.0099377902 -0.087822922 0.080497026 0.10928985 -0.16523927 -0.16959272 -0.13184944 -0.043824624 -0.10201199 0.16227849 -0.0020317165 -0.11508855 -0.09596879 -0.0071356464 0.29301468 0.091356911 0.1328498 -0.18661463 0.094395116 -0.054954421 0.19417647 0.2085191 -0.10742297 0.085169315 -0.16220339 -0.083889984 0.12335638 -0.051292874 0.030714054 0.014506674 -0.015903827 0.26722828 -0.15564501 0.058769207 0.088025503 -0.12524548 0.069029778 0.056909245 0.12290119 -0.080906957 -0.10139224 0.086962983 0.031172054 -0.066574439 -0.013476461 0.14202149 0.25840643 -0.018837672 0.078195974 0.060356952 -0.22255312 -0.0082363337 -0.081317045 0.049994793 -0.092258833 0.046240933 0.13668583 -0.066884734 -0.028456112 0.00095709768 -0.017630139 0.071887881 -0.037582256 -0.14933933 -0.22037232 -0.17576265 0.0048765601 -0.2426918 0.055448778 0.047637504 -0.21270448
액션/Noun -0.049931385 -0.099193633 0.39052826 0.012005625 0.28751335 -0.20878623 0.015346156 -0.10379605 -0.20855699 -0.15117526 -0.066761866 0.01220354 0.088862501 0.014415019 0.0026994338 -0.026395515 0.14486833 -0.077696621 -0.035385367 0.061723903 -0.047735374 0.20532639 0.043345191 -0.021891065 0.12460969 0.098209001 0.14645374 0.099922836 0.081745915 0.0032955355 -0.097181857 0.076291025 0.1206305 -0.17113402 -0.17755952 -0.1374307 -0.047741234 -0.11045032 0.17095359 -0.014136246 -0.1233905 -0.096542977 -0.019814206 0.3065412 0.08854039 0.13340102 -0.20137072 0.098749459 -0.0471306 0.19727103 0.21418658 -0.11618815 0.089971028 -0.16396789 -0.085751869 0.12959194 -0.056400299 0.017622594 0.026849505 -0.014016411 0.28945637 -0.15410535 0.065550417 0.089112982 -0.13302752 0.065099686 0.054725278 0.12563474 -0.075242601 -0.094153434 0.090957955 0.034669921 -0.068453133 -0.02040468 0.14459576 0.26971173 -0.018314026 0.086392485 0.051188562 -0.21512547 -0.01976385 -0.085039176 0.053006846 -0.084084131 0.037320405 0.15295146 -0.062054869 -0.022705708 -0.00033532758 -0.012859215 0.070671372 -0.04701874 -0.15186527 -0.22217111 -0.17385085 0.0019233591 -0.24717236 0.058184162 0.039224498 -0.21817861
어리다/Verb -0.049115889 -0.10050949 0.37263051 0.015638271 0.25922501 -0.18191607 0.017885333 -0.089220479 -0.19498631 -0.14925192 -0.062066164 0.022824818 0.082355984 0.022965001 -0.0025591354 -0.013719444 0.12998898 -0.062497802 -0.021223439 0.061379611 -0.045568939 0.1830252 0.024679443 -0.014819011 0.091290832 0.08893133 0.14450063 0.095032342 0.074627914 0.0083670001 -0.085316531 0.085564241 0.11189181 -0.16886663 -0.1774828 -0.12040213 -0.046359491 -0.11876522 0.1669368 -0.0075117643 -0.11871669 -0.094598688 -0.010958814 0.29754055 0.085508578 0.13595694 -0.1912543 0.098882332 -0.044961818 0.18939723 0.19826825 -0.11763211 0.07461933 -0.1667973 -0.089808367 0.13375357 -0.043413088 0.014300412 0.030745462 -0.024259839 0.27685651 -0.1475787 0.054023441 0.060673676 -0.12985064 0.055845357 0.054639395 0.10942635 -0.069848672 -0.089351609 0.072163947 0.032260451 -0.063794695 -0.025122255 0.12911664 0.25991559 -0.027751051 0.088348471 0.061222676 -0.20812145 -0.018096294 -0.086726278 0.042130355 -0.076417372 0.030385563 0.14573269 -0.060694326 -0.025334148 0.0055292528 -0.001962031 0.059352085 -0.048983619 -0.1488177 -0.22248042 -0.16041563 0.0011244966 -0.21923895 0.045890205 0.041256987 -0.20153838
장면/Noun -0.089439549 -0.10738805 0.38665619 -0.014733291 0.22879456 -0.15226963 0.019645082 -0.11695018 -0.20081577 -0.15322278 -0.079636924 0.055264626 0.076581828 0.060369249 -0.03009467 -0.0029827098 0.16027968 -0.10399072 -0.031116454 0.029293938 -0.0077854469 0.24335131 0.068293884 -0.040388037 0.13565952 0.094977953 0.1703707 0.11425674 0.035175283 0.041637648 -0.045063961 0.030693447 0.11732256 -0.20102754 -0.18635252 -0.094048321 -0.052100666 -0.094353363 0.19015519 -0.016621932 -0.14130716 -0.13378942 0.01163753 0.28207162 0.10185823 0.15825669 -0.23443066 0.082003213 0.00332389 0.17064455 0.22021107 -0.15663496 0.070120059 -0.14076552 -0.10123186 0.10724942 -0.088064641 0.05374378 -0.018449636 -0.043764085 0.31176057 -0.15958895 0.074770287 0.10655824 -0.11738192 0.0061067226 0.033721056 0.12450153 -0.099745005 -0.12610264 0.052924346 0.021669311 -0.039127335 -0.0071917735 0.12921198 0.24459995 -0.0009695238 0.076417446 0.081608169 -0.27382249 -0.020909507 -0.11584213 0.068965957 -0.145492 0.01568562 0.15622537 -0.030808931 -0.051486213 -0.022562794 -0.036147725 0.061574578 -0.030188084 -0.12598114 -0.2228438 -0.14638138 0.020262541 -0.24395475 0.1357827 0.038757782 -0.2150126
주다/Verb -0.048201095 -0.093787834 0.38600087 0.017173994 0.27824396 -0.19223393 0.020925954 -0.090552352 -0.20710419 -0.1545936 -0.062816188 0.0081830155 0.082538314 0.030142555 -0.0020589358 -0.015979629 0.13662355 -0.077370241 -0.033997249 0.056010853 -0.041585792 0.21311235 0.034764953 -0.030405356 0.10957325 0.093950927 0.13946621 0.11357541 0.073995553 0.0059155864 -0.089565076 0.075867452 0.12613007 -0.16373543 -0.17834456 -0.13444503 -0.045923907 -0.11123419 0.16780892 -0.0043020272 -0.12141716 -0.096959144 -0.017198892 0.30371264 0.081621341 0.12748979 -0.19075696 0.094313852 -0.043048121 0.2059707 0.20760915 -0.11906366 0.081791811 -0.17342238 -0.086913727 0.13425 -0.052959234 0.010149162 0.019424401 -0.020328822 0.28978011 -0.15547642 0.061050981 0.082954235 -0.13733555 0.059336033 0.064519823 0.11998273 -0.080067545 -0.098509558 0.08108604 0.024941837 -0.068030387 -0.020252833 0.1332919 0.27295306 -0.031496577 0.090000935 0.063603021 -0.22473955 -0.0067083226 -0.075040728 0.060365856 -0.081618212 0.040463775 0.14861932 -0.072152488 -0.011260889 0.0024077506 -0.011266731 0.054905839 -0.042913221 -0.14065488 -0.22569536 -0.1653156 0.0042852829 -0.24221838 0.057540704 0.040557086 -0.2172586
음악/Noun -0.053808827 -0.090837233 0.38931841 0.014121767 0.27890107 -0.18672974 0.018391918 -0.096016899 -0.19691877 -0.15475164 -0.065331563 0.018361175 0.07728897 0.023617061 -0.0031354951 -0.010343681 0.13870609 -0.080147766 -0.02611498 0.061625261 -0.034298144 0.20805955 0.037907295 -0.021470135 0.11297049 0.093986273 0.13963318 0.10569854 0.067139111 0.0056901891 -0.084373355 0.063560277 0.12510824 -0.16952327 -0.18441135 -0.11955579 -0.045082979 -0.11180642 0.16335583 -0.0025396505 -0.12207064 -0.097288802 -0.011200103 0.30214271 0.097673751 0.13970859 -0.20853081 0.091821998 -0.038362347 0.20101108 0.21706517 -0.12610836 0.086209215 -0.16593392 -0.092832215 0.13062796 -0.057626553 0.019907687 0.012760201 -0.023116285 0.28765899 -0.1473498 0.060636107 0.087270416 -0.1330725 0.055464894 0.058027677 0.12011465 -0.072888203 -0.093957409 0.076097034 0.02905993 -0.062463854 -0.025978217 0.14304434 0.26364374 -0.01437842 0.089848295 0.059181977 -0.22748826 -0.0071615479 -0.086691506 0.05923396 -0.089495003 0.034680732 0.1513707 -0.069690824 -0.024136536 -0.0038334331 -0.014355945 0.062353194 -0.038179148 -0.15184583 -0.22179709 -0.16543886 0.00024293004 -0.24644782 0.075410202 0.041510362 -0.20781478
늘다/Verb -0.054431699 -0.10432364 0.38079628 0.020338012 0.27936867 -0.2053284 0.023617435 -0.09764228 -0.20571785 -0.15704101 -0.061694931 0.0027894957 0.081440844 0.023882736 -0.0032571217 -0.014309803 0.13023433 -0.075333677 -0.026397202 0.061768629 -0.033344295 0.2025709 0.034429517 -0.019760368 0.11464451 0.10129353 0.14914796 0.09953808 0.081375524 0.013844769 -0.089357823 0.073647536 0.12016329 -0.17676684 -0.1735862 -0.13451828 -0.034884505 -0.10634475 0.17073177 -0.00065548305 -0.13041507 -0.098438025 -0.019761225 0.30951408 0.094321169 0.14336808 -0.20197925 0.084110402 -0.05230172 0.19967481 0.19726101 -0.12055624 0.091252156 -0.16527528 -0.083888076 0.13088134 -0.054202799 0.024330767 0.01174221 -0.016857315 0.27632979 -0.15258928 0.064467914 0.087010652 -0.13979116 0.053646203 0.067883447 0.11341771 -0.06948638 -0.094070651 0.082456619 0.027505625 -0.058445286 -0.025702741 0.13858901 0.26094565 -0.02255802 0.085360527 0.050607383 -0.21372519 -0.017960325 -0.082780123 0.056489311 -0.087081395 0.04469179 0.15263477 -0.066701226 -0.023300705 -8.0185593e-05 -0.014985074 0.069248714 -0.039262906 -0.13965231 -0.22969224 -0.1683777 0.010685166 -0.23427412 0.058052715 0.04958228 -0.21102488
걸작/Noun -0.053113237 -0.090437233 0.37964836 0.0052523892 0.28255066 -0.20341757 0.014070639 -0.092894837 -0.19962275 -0.1505301 -0.062498655 0.0041175811 0.08999192 0.013571758 0.0018905989 -0.02155585 0.13868158 -0.072841667 -0.030780736 0.057583671 -0.036548294 0.20929091 0.041473385 -0.023706038 0.11229058 0.10111913 0.15230934 0.10735237 0.085498095 0.0082507078 -0.091059953 0.074775167 0.11107979 -0.16603099 -0.16944546 -0.13152647 -0.035688534 -0.1004657 0.16243285 -0.013903727 -0.1194905 -0.096986219 -0.011083301 0.29833803 0.085703619 0.13310404 -0.18990363 0.091571942 -0.044043094 0.20496783 0.20791435 -0.11982612 0.086372972 -0.1639946 -0.082753472 0.13574162 -0.067277126 0.016506772 0.017531922 -0.0059406981 0.28316915 -0.14790899 0.067085236 0.091079377 -0.14283989 0.058972329 0.061021265 0.12596174 -0.075477026 -0.10077422 0.085165389 0.028252298 -0.067741826 -0.024421461 0.13425535 0.26628429 -0.018422667 0.095509365 0.050816193 -0.21677682 -0.014112191 -0.069613032 0.061379142 -0.082960084 0.041981637 0.14689396 -0.070393808 -0.021510189 0.005226437 -0.018181901 0.074593864 -0.044010472 -0.13625392 -0.21706654 -0.17316546 0.0088769831 -0.24693182 0.061112601 0.03987509 -0.20647988
작품/Noun -0.050237473 -0.096608385 0.39504939 0.015609098 0.28234348 -0.21108612 0.01335554 -0.096517608 -0.21059737 -0.15205052 -0.06074433 0.015838828 0.089659601 0.02030775 -0.0037963022 -0.024083592 0.14282046 -0.071066268 -0.029522726 0.061475936 -0.037968125 0.20591679 0.035059065 -0.029238068 0.11828236 0.09970209 0.14766146 0.11121237 0.087357372 0.0044760955 -0.092770524 0.075117499 0.12612601 -0.17266737 -0.18357025 -0.13604996 -0.046861701 -0.11444568 0.17456755 -0.0087034898 -0.13273144 -0.096804425 -0.0089821108 0.30741417 0.087939844 0.14474009 -0.19972764 0.10053805 -0.043872394 0.19814669 0.21350026 -0.12495742 0.091117047 -0.16785826 -0.087241799 0.13941275 -0.055704594 0.02636979 0.024134303 -0.022275165 0.28366795 -0.15938039 0.061342303 0.084977731 -0.13430336 0.071242303 0.050147574 0.1236278 -0.078434989 -0.1053755 0.083140634 0.027894016 -0.066285968 -0.020459836 0.13899331 0.27536395 -0.022875732 0.09839835 0.053186223 -0.21607739 -0.016811233 -0.076393068 0.058356222 -0.084035762 0.03650647 0.14775474 -0.07489071 -0.017016182 -0.0029253825 -0.013800486 0.073597498 -0.040597573 -0.14602906 -0.22576454 -0.1719574 0.0042584683 -0.25284573 0.058073167 0.037701119 -0.21666604
최고다/Noun -0.064517647 -0.10328235 0.36922348 0.021439334 0.26019976 -0.17912775 0.01273375 -0.090321571 -0.19301061 -0.143915 -0.069011286 0.013726211 0.086109675 0.032233559 -0.014293001 -0.010645035 0.14122365 -0.085267976 -0.025369579 0.064708114 -0.038741264 0.20570272 0.044244986 -0.037122086 0.12392647 0.095200494 0.14686662 0.11308763 0.075202048 0.008298289 -0.081216484 0.071641028 0.10668191 -0.16638035 -0.16753772 -0.12349445 -0.044251133 -0.099151723 0.16999242 -0.0048831617 -0.12728895 -0.1054862 -0.019567762 0.28783122 0.082402296 0.13773675 -0.20309873 0.080228284 -0.051170189 0.19190891 0.19495456 -0.12158018 0.08721114 -0.15259357 -0.076993078 0.12304425 -0.067485206 0.021893412 0.019424379 -0.014817463 0.27947605 -0.14343095 0.06567499 0.09438704 -0.12240082 0.047104493 0.061338175 0.10768386 -0.082089819 -0.10464469 0.074717149 0.032451481 -0.058830481 -0.027358215 0.14712885 0.2532143 -0.01746726 0.084605619 0.066067778 -0.2237125 -0.015666408 -0.081779927 0.064454019 -0.10777976 0.041042279 0.14098126 -0.065360285 -0.016889215 0.0047471067 -0.021723676 0.065493211 -0.033737585 -0.13798074 -0.21268959 -0.16672674 0.0040138932 -0.23039551 0.067811117 0.043345939 -0.21056849
넘다/Verb -0.046317477 -0.10821237 0.37351075 0.024312569 0.27806881 -0.19136608 0.017117238 -0.085445717 -0.1950431 -0.13783199 -0.055916604 0.021347355 0.096583351 0.031399544 0.0061647976 -0.0058154622 0.13295265 -0.071686983 -0.017928397 0.059127357 -0.044644557 0.20353951 0.021484502 -0.021233898 0.12027963 0.090991117 0.14044397 0.10597694 0.069252081 0.0011748089 -0.095135152 0.078758016 0.12083869 -0.16812761 -0.1830125 -0.13041084 -0.042895012 -0.10316268 0.16830997 -0.0057705855 -0.13450414 -0.090143293 -0.011930687 0.29463321 0.076961413 0.13051517 -0.18548958 0.09938506 -0.058519997 0.18989235 0.21335617 -0.11684089 0.081552655 -0.15857908 -0.086278483 0.12117789 -0.048972152 0.010050524 0.010043309 -0.018934136 0.27199176 -0.15572147 0.056526601 0.077256203 -0.13176848 0.064511083 0.068477422 0.11006839 -0.070742227 -0.1076365 0.080713823 0.034764864 -0.071279287 -0.025567545 0.13953421 0.25689995 -0.01870916 0.082926482 0.05340286 -0.20761266 -0.0081116892 -0.086624719 0.056684058 -0.088920459 0.03090387 0.13510954 -0.075275138 -0.031755473 0.0068404693 -0.0055163549 0.053599287 -0.039639339 -0.15736881 -0.22275728 -0.17716841 0.01038056 -0.24076506 0.052965652 0.052318729 -0.21187386
멋지다/Adjective -0.05285909 -0.10072904 0.38061628 0.012297729 0.26877597 -0.18974468 0.014182627 -0.087799124 -0.20178412 -0.13583054 -0.057694279 0.010624867 0.077920318 0.026989127 -0.003817339 -0.0095767109 0.13352686 -0.081979841 -0.017124269 0.060236134 -0.042912725 0.2153241 0.043321736 -0.032621365 0.1235701 0.10413274 0.14899184 0.11065031 0.075121433 -0.0043264185 -0.088312559 0.068301097 0.11546101 -0.16583927 -0.1677922 -0.12128654 -0.036120251 -0.10479378 0.16882476 -0.012400933 -0.12796555 -0.097056575 -0.022866363 0.29054776 0.090437368 0.14593519 -0.20695661 0.085621446 -0.044868339 0.1911834 0.20863435 -0.12248033 0.086709164 -0.16156718 -0.087362252 0.12378018 -0.061358135 0.023974165 0.016834129 -0.020139156 0.28684425 -0.13829872 0.063843757 0.090954833 -0.1297823 0.049722038 0.068891853 0.10619419 -0.082840934 -0.096876264 0.07290031 0.035142131 -0.055628803 -0.026045475 0.13973147 0.25105721 -0.029171206 0.091507927 0.061593067 -0.2147534 -0.0089206193 -0.084962957 0.058914024 -0.10035573 0.029788967 0.14527425 -0.060037583 -0.014676615 0.0061826017 -0.011972568 0.069672987 -0.037293885 -0.14171414 -0.21951029 -0.16961432 0.0084002772 -0.23679659 0.068108439 0.040519759 -0.20858511
생각/Noun -0.047368217 -0.094828606 0.37280023 0.010596571 0.27418956 -0.19475861 0.018511228 -0.10130906 -0.19230287 -0.14832579 -0.063916765 0.0049113045 0.082907155 0.013814899 0.015584509 -0.014806483 0.13131677 -0.078188181 -0.033967927 0.061354313 -0.045321781 0.19178633 0.030953815 -0.012711336 0.10258874 0.10186742 0.13489838 0.098386616 0.089680158 0.0080926027 -0.091960609 0.081205785 0.11575526 -0.15837184 -0.17728379 -0.12604381 -0.052080017 -0.10789572 0.17088918 -0.0089320261 -0.11348949 -0.085402742 -0.01343535 0.30500641 0.086227544 0.13477735 -0.18916839 0.098223418 -0.046136655 0.2011757 0.20579448 -0.10208146 0.082453579 -0.16694686 -0.082425997 0.13087161 -0.054570753 0.014660082 0.02315264 -0.011422741 0.27374795 -0.1509349 0.066917971 0.079692535 -0.14060149 0.074526243 0.050180849 0.1201257 -0.061808582 -0.094080232 0.083246626 0.023218727 -0.063305989 -0.020160757 0.12890022 0.25413445 -0.034227539 0.096604057 0.051164471 -0.22229435 -0.0022491247 -0.062043529 0.051055234 -0.08435867 0.048103064 0.14971566 -0.070749581 -0.036513131 -0.0034105724 -0.0029169663 0.058038268 -0.059977747 -0.13717119 -0.21863744 -0.17588529 -0.001986417 -0.23488376 0.040602956 0.034018032 -0.20949888
이다/Adjective -0.053424455 -0.091222577 0.34666908 0.0057259426 0.25125414 -0.18490961 0.023752945 -0.081172384 -0.18028384 -0.14267561 -0.051057901 0.011477017 0.073677473 0.02050129 -0.0021009375 -0.01556187 0.1240847 -0.064325318 -0.032831568 0.061976284 -0.037070483 0.1868117 0.035876352 -0.025126824 0.096842982 0.091073796 0.13450329 0.097879723 0.071245514 -0.0013571094 -0.082386754 0.072263092 0.10100778 -0.15460853 -0.1709919 -0.11431672 -0.038076397 -0.1028503 0.15467294 -0.0070786634 -0.11218311 -0.092546836 -0.010273786 0.27086172 0.082940541 0.13289337 -0.18404025 0.085907362 -0.038725421 0.175136 0.1927093 -0.11343608 0.072887689 -0.15725245 -0.075618342 0.11847527 -0.048670106 0.022443635 0.020445704 -0.022719793 0.25921723 -0.12963729 0.059380911 0.072479196 -0.11791858 0.059053235 0.06061653 0.11040504 -0.067894697 -0.090407833 0.078504942 0.022628285 -0.057733856 -0.023375789 0.13348937 0.25023621 -0.019383179 0.090765812 0.053555381 -0.19306698 -0.0097515397 -0.075086065 0.048318692 -0.084905617 0.028983012 0.13918105 -0.052404653 -0.021672579 -0.0047590854 -0.019337511 0.064125821 -0.038344055 -0.12776303 -0.20397753 -0.15050998 -0.00020869482 -0.21616974 0.053197905 0.040059287 -0.19751076
사랑/Noun -0.058534872 -0.099111542 0.38850915 0.018228048 0.27961096 -0.20359394 0.013020115 -0.093697935 -0.19636497 -0.14655593 -0.070962436 0.011201999 0.085266933 0.022705102 0.0059031234 -0.017376361 0.1494002 -0.086700283 -0.025521686 0.065481775 -0.04652489 0.19951117 0.040657789 -0.026091734 0.11577309 0.1032777 0.15016903 0.10504381 0.088664532 0.0021040181 -0.092783391 0.076424234 0.12778348 -0.17094079 -0.18004361 -0.13406318 -0.0495927 -0.10887999 0.16391438 -0.0082309311 -0.1173228 -0.10156046 -0.0079294359 0.31715125 0.092260353 0.14196157 -0.19372125 0.0938005 -0.048961636 0.20755425 0.21396226 -0.11604296 0.084274791 -0.16995393 -0.088251755 0.13298067 -0.056968417 0.027181277 0.014209233 -0.018027196 0.27880916 -0.14457385 0.061086111 0.078045771 -0.13749777 0.06918028 0.057681549 0.12240682 -0.067498349 -0.10234932 0.087438397 0.028938903 -0.065248065 -0.014127209 0.14364481 0.27415118 -0.026905239 0.088527054 0.064027347 -0.23189124 -0.0060636098 -0.080059312 0.056539103 -0.09028241 0.042844281 0.15019634 -0.068570405 -0.022112567 0.0013597268 -0.019444579 0.058982622 -0.055065315 -0.15247498 -0.22783282 -0.16365862 0.0054521067 -0.24501723 0.059601586 0.031007467 -0.21775594
가장/Noun -0.052450057 -0.10657412 0.39258519 0.0033942477 0.29142791 -0.20198482 0.010500002 -0.10352507 -0.20121442 -0.143123 -0.059663571 0.018696437 0.092226885 0.021487171 -0.011376366 -0.021900197 0.14612816 -0.078266121 -0.039762396 0.049400363 -0.029995246 0.20203204 0.025672043 -0.01560107 0.10853068 0.087449968 0.14324747 0.11375239 0.07078857 0.0073961131 -0.093902484 0.088189736 0.12464005 -0.17686018 -0.17675951 -0.12586364 -0.057958905 -0.12104844 0.17104329 -0.014062454 -0.12793468 -0.092722982 -0.022624971 0.30475888 0.09185648 0.14233449 -0.18487747 0.08432541 -0.039665148 0.20223856 0.19635448 -0.1199383 0.082802556 -0.1708989 -0.081499346 0.12453108 -0.052112319 0.022464694 0.034699261 -0.0098521914 0.28719416 -0.15176974 0.058474023 0.075759701 -0.1417487 0.073960193 0.065643266 0.11509667 -0.063290536 -0.11201123 0.086547494 0.043521207 -0.072492503 -0.010714067 0.14860231 0.26700771 -0.01376881 0.092962511 0.065193266 -0.21935853 -0.018771484 -0.078231022 0.071145289 -0.096023947 0.05068985 0.15136872 -0.068218254 -0.021956503 -0.001193486 -0.015346091 0.05746166 -0.059116989 -0.15576352 -0.23187934 -0.17221114 0.0040347152 -0.23216181 0.050684076 0.051061053 -0.2124559
눈물/Noun -0.053169969 -0.094948187 0.40506208 -0.00048354335 0.27236897 -0.19043502 0.010938498 -0.098932251 -0.2019657 -0.16327874 -0.085936375 0.028451521 0.097162738 0.043234311 -0.010644559 -0.0017887474 0.1408301 -0.096169211 -0.035637654 0.054295804 -0.041334342 0.22400305 0.049571209 -0.034393534 0.12164926 0.11470722 0.15678212 0.099394344 0.074060909 0.018090583 -0.079363503 0.070443049 0.13404784 -0.19661379 -0.1977888 -0.13123445 -0.051455226 -0.11241212 0.19307165 -0.0014328095 -0.12731037 -0.11958119 -0.015222773 0.32191125 0.1053526 0.1566871 -0.2178144 0.095550232 -0.026333923 0.21323432 0.23536076 -0.14613833 0.070104524 -0.15401347 -0.092434801 0.12180818 -0.064790361 0.024833124 0.0071846521 -0.038842332 0.3117469 -0.16290019 0.072576657 0.098404072 -0.13616505 0.034999039 0.046534121 0.13008508 -0.077839777 -0.1166335 0.075100392 0.017920908 -0.051513616 -0.020619605 0.14120258 0.28041252 -0.0052583241 0.097498335 0.072560407 -0.2606723 -0.005411786 -0.10957193 0.065334208 -0.11974595 0.045281384 0.14834121 -0.057432123 -0.047222871 -0.020473681 -0.022383757 0.081005022 -0.033883467 -0.13941769 -0.2394924 -0.18403684 0.0019999754 -0.24293336 0.084162496 0.033289313 -0.23393501
ㅋㅋ/KoreanParticle -0.049746469 -0.097267613 0.37146816 0.016039651 0.27109617 -0.18644385 0.023261033 -0.095674582 -0.19072759 -0.15092269 -0.053893827 0.010270192 0.088917315 0.030515602 0.0027640879 -0.018475745 0.13181989 -0.067189522 -0.029160585 0.061357364 -0.040155288 0.19611451 0.02925105 -0.012900691 0.1011844 0.087487787 0.13408746 0.093717009 0.075696528 0.0041395803 -0.090615995 0.085249804 0.11292902 -0.17568529 -0.16380566 -0.13048775 -0.047161378 -0.11155346 0.16303836 -0.0033355723 -0.11605114 -0.09311597 -0.012418414 0.2954073 0.085940398 0.12713197 -0.18919386 0.096958742 -0.055775177 0.19199118 0.20781116 -0.11520405 0.076131895 -0.16736618 -0.086862832 0.13308239 -0.056366142 0.017314 0.024132619 -0.0079907728 0.27853927 -0.15244792 0.060186479 0.065089323 -0.1362686 0.066966109 0.052081652 0.1059181 -0.08193931 -0.094394557 0.082783103 0.034418613 -0.059660163 -0.020791527 0.12881424 0.26044008 -0.028418459 0.081249602 0.057793774 -0.20843481 -0.021683116 -0.080228075 0.049057316 -0.083563887 0.038411275 0.13273509 -0.068608545 -0.018012045 0.0063639991 -0.00091750594 0.058856376 -0.041642331 -0.15556657 -0.22392131 -0.16778094 0.0056609893 -0.23049444 0.05259316 0.048280682 -0.20293383
기억/Noun -0.058242954 -0.10318331 0.40136674 -0.0012187916 0.28177887 -0.19015582 0.0088084927 -0.084964603 -0.21871419 -0.16243039 -0.055758595 -0.0012904966 0.10098662 0.03217382 0.004982037 -0.0053283647 0.14892544 -0.068411142 -0.030177278 0.055232644 -0.038317736 0.2257607 0.043745976 -0.018039072 0.12313655 0.08739531 0.15650395 0.10061328 0.080142707 0.016309615 -0.089202315 0.066770233 0.13144104 -0.1687865 -0.18263866 -0.12581143 -0.052494314 -0.10571073 0.1887027 -0.0029762168 -0.12865141 -0.10841575 -0.012204797 0.29528508 0.096001409 0.1561674 -0.20027564 0.094370499 -0.051601674 0.21193324 0.210765 -0.13414751 0.09524633 -0.16349941 -0.086786576 0.15451068 -0.053943273 0.026667789 0.01755465 -0.01325533 0.29589251 -0.12973996 0.058105066 0.087347522 -0.1313702 0.043542735 0.077264041 0.10614591 -0.077110179 -0.10793216 0.070093669 0.025440168 -0.067761049 -0.030904653 0.15958734 0.26888508 -0.026360849 0.090836152 0.054714568 -0.23640646 -0.0071650795 -0.082037956 0.064098835 -0.11138567 0.05040504 0.14085302 -0.065740585 -0.0091127539 -0.007820026 -0.020961825 0.073019952 -0.031002302 -0.15813491 -0.21555488 -0.18052581 -0.0017934608 -0.25302145 0.064913884 0.044878203 -0.2252997
그냥/Noun -0.054074116 -0.090572901 0.36798364 0.017166326 0.27261066 -0.19201432 0.016205328 -0.08685229 -0.19334294 -0.1412055 -0.057033904 0.012685301 0.084967397 0.022274276 0.0069769784 -0.019447858 0.12611669 -0.076411292 -0.029618971 0.06771417 -0.037832025 0.197908 0.036697131 -0.018293504 0.1115659 0.091441572 0.13734026 0.10016984 0.081178248 0.010793017 -0.079946265 0.073900282 0.11489824 -0.16424206 -0.16563964 -0.12843749 -0.04713954 -0.097792983 0.1592973 -0.0097894622 -0.12631924 -0.090664588 -0.015329828 0.28642163 0.086097226 0.12942386 -0.18985865 0.091865622 -0.054685388 0.18831298 0.20132938 -0.10937317 0.087873921 -0.15608028 -0.075400949 0.13202213 -0.061984297 0.02041382 0.021491641 -0.015439002 0.26872203 -0.15051349 0.064349949 0.075601079 -0.13134521 0.058678519 0.051711924 0.10979361 -0.076476626 -0.094747126 0.081612252 0.029051812 -0.06226477 -0.024407715 0.12911169 0.25445068 -0.022072634 0.084693991 0.058472827 -0.20583414 -0.012229167 -0.075382605 0.046469826 -0.085705481 0.044518366 0.1428968 -0.060368821 -0.017517557 -0.0016555652 -0.0084981825 0.059877649 -0.036179621 -0.13184014 -0.218376 -0.16066113 0.0082694665 -0.23096304 0.064291507 0.042257845 -0.20346868
평점/Noun -0.044471651 -0.093589105 0.38914338 0.0040044859 0.29486865 -0.19466761 0.00886002 -0.080468193 -0.20966348 -0.15547352 -0.052393988 0.001885329 0.091575556 0.02621635 0.0081822034 -0.021997262 0.13232136 -0.084860012 -0.022859748 0.068035796 -0.04871491 0.19728449 0.026704924 -0.023207147 0.11056729 0.10846565 0.14829814 0.10680794 0.092988476 0.0033032224 -0.087070934 0.076637447 0.11954544 -0.16810884 -0.18577518 -0.13613234 -0.057659693 -0.11275345 0.16464359 -0.0014078459 -0.1263541 -0.091600515 -0.013972634 0.30897549 0.082918718 0.13157547 -0.18998523 0.098804936 -0.051863451 0.20429307 0.22152328 -0.11813855 0.092561871 -0.18142444 -0.09922988 0.12691437 -0.056982145 0.018021327 0.023867123 -0.017262621 0.28344801 -0.15466747 0.061536521 0.07199578 -0.14048339 0.067567714 0.071896389 0.11501991 -0.082830235 -0.11012556 0.097579144 0.026504548 -0.065895118 -0.016218556 0.13248746 0.26275367 -0.026653141 0.09774287 0.065143973 -0.22204275 -0.019313727 -0.075979717 0.046543952 -0.087092876 0.044582196 0.13590284 -0.06830772 -0.017169502 -0.0042438502 -0.013685446 0.060806714 -0.039285753 -0.14471203 -0.2211116 -0.18219769 0.00069896958 -0.24956834 0.061488315 0.043859035 -0.20910569
시간/Noun -0.050058462 -0.10972109 0.39452061 0.0046034949 0.27692991 -0.19801855 0.013662455 -0.09445291 -0.20332062 -0.14690161 -0.059421923 0.0029651311 0.086383261 0.025734318 0.0027456752 -0.014851142 0.14198698 -0.072389148 -0.02513922 0.062706612 -0.055779953 0.20381176 0.024518678 -0.026894419 0.11421449 0.096598521 0.15636365 0.11725939 0.085059419 0.0015542379 -0.08498174 0.075381115 0.13124338 -0.16864024 -0.1786402 -0.13245586 -0.047754172 -0.11635155 0.16453324 -0.014932684 -0.13248073 -0.094359905 -0.012798504 0.31561968 0.088490717 0.13427021 -0.19945605 0.085588597 -0.049047504 0.20282987 0.2135251 -0.13012648 0.097325712 -0.17623447 -0.094342269 0.13350761 -0.049738608 0.022982642 0.016264729 -0.016240396 0.28892326 -0.14622572 0.06970682 0.077321254 -0.13692528 0.061681211 0.074234642 0.12727645 -0.078661516 -0.09552186 0.080875263 0.033127349 -0.064943761 -0.018255632 0.14384152 0.26302013 -0.033793885 0.088936642 0.065314725 -0.2295741 -0.016767774 -0.077742688 0.05325 -0.080579281 0.045178741 0.14645445 -0.074656919 -0.011233698 -0.00606015 -0.0089597329 0.071094081 -0.042315513 -0.14874694 -0.23167342 -0.1801573 0.00020016715 -0.25419149 0.055061076 0.037043124 -0.21623765
마이/Noun -0.3554728 -0.25217518 0.33449039 0.13799536 0.17843069 0.063413374 -0.065597489 0.13901997 -0.26908687 0.090756342 -0.14086626 0.0010761928 0.22710037 0.20650508 -0.28585014 0.077460513 0.17687248 -0.17745394 0.20126241 0.17266545 0.096284762 0.56516314 0.40600064 -0.35956028 0.52834582 0.11223839 0.23846796 0.33929774 0.09869916 -0.11778632 0.17701912 -0.14907745 -0.030493287 -0.20519906 -0.19415373 -0.05369598 0.049539544 0.098419599 0.27964762 0.15762274 -0.34128892 -0.3182826 -0.18679777 0.14390689 0.19360597 0.38569182 -0.54079765 -0.34362975 -0.11047718 0.15208788 0.19284922 -0.38487509 0.37903163 -0.080256611 -0.081600562 0.022111226 -0.37978965 0.11800656 -0.076368406 0.047109589 0.54821831 -0.011293671 0.072966039 0.46624255 0.061240796 -0.069138564 0.45495382 -0.17261231 -0.2527796 -0.38642403 0.067357451 0.19530927 0.066513412 -0.22703542 0.53939539 0.046661101 0.095121935 0.026144629 0.21398601 -0.46080789 0.01670601 0.018760946 0.19556874 -0.593247 0.005244405 0.27153218 0.025350988 0.24074021 -0.03885372 -0.074490547 -0.0032600609 0.43385473 -0.16476715 0.012617547 -0.16334394 -0.011419017 -0.35610604 0.45113862 0.090890616 -0.44808212
지루하다/Adjective -0.055411596 -0.10644642 0.38489026 0.013048393 0.27688998 -0.19187663 0.01628872 -0.094232693 -0.20937173 -0.15283735 -0.064584322 0.006097836 0.090505652 0.017784184 0.0021978938 -0.011454899 0.13554429 -0.078634024 -0.028017467 0.06308613 -0.045846511 0.2061839 0.027704328 -0.024345255 0.10957474 0.09563221 0.14113811 0.1067768 0.085412152 0.003842908 -0.092427015 0.074248232 0.12889674 -0.179251 -0.17987217 -0.13083264 -0.0455929 -0.10300197 0.162774 -0.0056743715 -0.13218994 -0.096259579 -0.0093595739 0.30220327 0.083890647 0.13580783 -0.19694935 0.098963097 -0.05693499 0.20600195 0.21607073 -0.11654589 0.095866129 -0.17118694 -0.088073723 0.13816963 -0.050962869 0.021337058 0.011190779 -0.016948352 0.28393692 -0.15398557 0.054235686 0.08111573 -0.12632675 0.068096079 0.059598282 0.11718757 -0.083959334 -0.098149225 0.081480041 0.033263359 -0.066141829 -0.027776863 0.13013746 0.26919192 -0.033669002 0.084405832 0.056936298 -0.22471602 -0.0078603644 -0.079538077 0.053248357 -0.093910173 0.033404641 0.14488332 -0.066449046 -0.012414328 -0.0082138674 -0.011127159 0.064680837 -0.049611125 -0.15339217 -0.22700773 -0.17547701 -0.0013632168 -0.25219777 0.062248938 0.037849978 -0.20537955
자다/Verb -0.05968345 -0.10492203 0.383396 0.018581359 0.28026897 -0.1999696 0.016846107 -0.095982447 -0.20077902 -0.14620599 -0.072778188 0.018287841 0.08137431 0.029966326 -0.0038102621 -0.013019934 0.1349439 -0.074952759 -0.036771026 0.067572221 -0.031484362 0.21378744 0.049991097 -0.032801621 0.11698637 0.10150404 0.15733366 0.10764156 0.083450966 0.00076510018 -0.082044058 0.075205304 0.11537989 -0.16064444 -0.18584882 -0.11464794 -0.046558864 -0.10428075 0.17023453 -0.012755034 -0.12167078 -0.10455567 -0.026142342 0.31362081 0.088799752 0.1443239 -0.20692191 0.090301022 -0.048759222 0.20770881 0.20349993 -0.12314781 0.087260664 -0.1707197 -0.080473974 0.12338081 -0.056816895 0.031657398 0.023211244 -0.024493866 0.29713473 -0.16123031 0.0621498 0.087188572 -0.13234596 0.065356508 0.073295027 0.12254499 -0.080016084 -0.10631339 0.081384122 0.034014005 -0.069894835 -0.032402195 0.14294143 0.25969699 -0.032172032 0.083671555 0.059566237 -0.21781884 -0.0029742219 -0.078561984 0.053882979 -0.1058236 0.040459029 0.15899546 -0.063419648 -0.025288578 -0.0048713279 -0.012550862 0.05779954 -0.039574746 -0.14644755 -0.21766949 -0.17911269 -0.0039296746 -0.23697537 0.065166004 0.046845488 -0.22137532
시대/Noun -0.045511276 -0.093331076 0.37372428 0.0097900853 0.2689451 -0.20538929 0.022254407 -0.093485989 -0.18966733 -0.14055815 -0.057311852 0.0064314962 0.08603096 0.021913709 0.0068473984 -0.021393357 0.12801217 -0.07706622 -0.033271231 0.052754633 -0.050111141 0.20176373 0.026945788 -0.026348121 0.10285331 0.10431065 0.14548762 0.10939544 0.075291917 0.00057454337 -0.091375165 0.072973236 0.11944894 -0.16712788 -0.17554988 -0.12998365 -0.033954598 -0.10805327 0.16698405 -0.015228085 -0.11877403 -0.089258254 -0.014945547 0.29287219 0.083655842 0.13109976 -0.1946744 0.098252088 -0.039862532 0.19311705 0.20309332 -0.12090678 0.088846102 -0.16020663 -0.087310188 0.13273829 -0.055431552 0.019984914 0.0089932065 -0.010939497 0.27158576 -0.15017334 0.064497814 0.086708285 -0.13776797 0.066875659 0.057596281 0.12129851 -0.065762632 -0.092470586 0.089057378 0.027449215 -0.066462301 -0.024996037 0.13386412 0.26711041 -0.029083733 0.097292617 0.047188915 -0.21937187 -0.012476685 -0.070797481 0.057935182 -0.081047826 0.043731969 0.13826087 -0.072177447 -0.017109182 0.0055434653 -0.013951695 0.073169611 -0.041537218 -0.14575502 -0.21958575 -0.17304163 0.0046096407 -0.24437599 0.050106671 0.042773485 -0.20347711
싶다/Verb -0.051900953 -0.094921522 0.38213265 0.021766832 0.27216178 -0.19627874 0.015021718 -0.087560438 -0.2076356 -0.14209566 -0.060578987 0.021704236 0.076379851 0.0065012365 -0.0069510182 -0.017769398 0.13402434 -0.071865767 -0.033818912 0.048368849 -0.044568744 0.20039333 0.03740688 -0.01491056 0.0930131 0.091088213 0.14314805 0.10434753 0.08805652 0.013241221 -0.091720276 0.068664655 0.13042343 -0.16495636 -0.18969099 -0.1320629 -0.065784492 -0.10374866 0.17698458 -0.0093758451 -0.12770616 -0.10643 -0.019877438 0.30766529 0.093923017 0.13001163 -0.1942901 0.093428962 -0.041033242 0.20822968 0.21815309 -0.1153855 0.089706816 -0.16355436 -0.086821243 0.13233115 -0.03565184 0.030331962 0.026344163 -0.019054584 0.28370479 -0.16039819 0.065046638 0.074371964 -0.13339932 0.060046837 0.049510811 0.13160165 -0.058290761 -0.095607534 0.090492189 0.024485918 -0.0570435 -0.014922827 0.14920618 0.2544032 -0.030819396 0.086779058 0.072256461 -0.2092021 0.0031605663 -0.065750107 0.042364307 -0.079980746 0.024836803 0.15135321 -0.068726212 -0.033844963 0.00050777779 -0.013531235 0.083649129 -0.050875492 -0.13892165 -0.21933901 -0.17059548 0.0052279006 -0.24594986 0.059825677 0.040289104 -0.19460189
들다/Verb -0.0589846 -0.10532559 0.38904876 0.016901663 0.28052837 -0.19657052 0.024079828 -0.10213799 -0.20107596 -0.15147758 -0.063497536 0.011493778 0.091092773 0.028208546 -0.0061784666 -0.014734101 0.14283372 -0.085554309 -0.027409945 0.053123578 -0.048388019 0.20038918 0.04303918 -0.025410386 0.11588527 0.10067808 0.14398891 0.11365088 0.070834331 0.011514198 -0.10340341 0.082187563 0.12216858 -0.18106025 -0.18730004 -0.13412064 -0.059597697 -0.11300141 0.15812171 -0.012974543 -0.12504387 -0.086343363 -0.010242299 0.32152754 0.091267414 0.14773545 -0.20244192 0.091549903 -0.049181581 0.19766127 0.20765048 -0.12896237 0.079251312 -0.15853116 -0.084745586 0.12920246 -0.06317424 0.021389412 0.012178083 -0.022948023 0.29874846 -0.15873513 0.067318246 0.080398582 -0.13751431 0.058712486 0.059569009 0.13491978 -0.076907359 -0.092686146 0.083405226 0.039422218 -0.064870395 -0.012931488 0.14375646 0.27556309 -0.034486178 0.09436325 0.065029502 -0.22272544 -0.0051828288 -0.090826675 0.06429977 -0.097165339 0.03015558 0.1562352 -0.071170658 -0.015240408 -0.0021316935 -0.011496759 0.076710239 -0.045402195 -0.15102658 -0.23668614 -0.16762562 0.0046422905 -0.2516427 0.059543069 0.048736703 -0.20756578
완전/Noun -0.05450609 -0.099158213 0.36733988 0.005949249 0.2800917 -0.18680544 0.023916719 -0.097255416 -0.18972297 -0.15135089 -0.06188301 0.018637655 0.085697211 0.024738561 -0.0046156785 -0.022686603 0.13481113 -0.065259017 -0.032320928 0.05966492 -0.038919982 0.19887823 0.030298086 -0.013428518 0.10860457 0.094715811 0.13792403 0.10344763 0.075889416 0.01571672 -0.088197485 0.075118899 0.11495931 -0.17195717 -0.17063621 -0.12100173 -0.04543614 -0.110948 0.16656171 -0.011262067 -0.12460729 -0.095465429 -0.017479539 0.29270515 0.086465776 0.1346678 -0.19147649 0.089862645 -0.045362424 0.18872273 0.20408787 -0.11822173 0.077316232 -0.1532414 -0.082655087 0.13182831 -0.053768497 0.024697773 0.021139184 -0.0087326849 0.27417815 -0.14897072 0.058646608 0.081924751 -0.13095653 0.053981025 0.059379958 0.11422397 -0.07634192 -0.096451417 0.078393549 0.036899161 -0.065041341 -0.01770349 0.1377769 0.25158966 -0.015709285 0.079064637 0.060900412 -0.20862466 -0.011894408 -0.077409796 0.04885336 -0.089084707 0.032324627 0.14685029 -0.063939855 -0.026335584 0.002412946 -0.0041025002 0.062544875 -0.043686081 -0.14566888 -0.22047013 -0.16130479 0.0030626156 -0.22622161 0.061489914 0.042125169 -0.20380844
전설/Noun -0.051755745 -0.098217309 0.37898856 0.019959338 0.29224533 -0.21461345 0.01440091 -0.10291725 -0.1908046 -0.13721697 -0.070019044 0.0202101 0.098571464 0.030168224 -0.012150894 -0.02994854 0.14091262 -0.067014232 -0.04227547 0.051178567 -0.041872926 0.20886987 0.047682784 -0.019349586 0.12612525 0.08644253 0.15340871 0.11324202 0.077331863 0.0061947335 -0.082416505 0.079932012 0.10892014 -0.16529417 -0.17732167 -0.12727241 -0.042350281 -0.1126238 0.17025267 -0.018300857 -0.12542495 -0.10074175 -0.027639326 0.3115136 0.094100341 0.13345319 -0.1977641 0.097084276 -0.047830198 0.20106937 0.194279 -0.11125045 0.093270481 -0.16450264 -0.070518613 0.13877155 -0.061823048 0.020289965 0.035177488 -0.0056714504 0.28990653 -0.14624825 0.077979736 0.073923245 -0.13628367 0.058131747 0.057669315 0.10278042 -0.061182987 -0.10950692 0.078277566 0.021487407 -0.052161384 -0.012917195 0.15093988 0.27171811 -0.030250866 0.082729153 0.064573728 -0.2138757 -0.021820016 -0.088356145 0.072371066 -0.079810642 0.058916062 0.13713792 -0.074704327 -0.02272691 -0.004374132 -0.019502494 0.075612143 -0.03136003 -0.14872612 -0.21637297 -0.1828685 0.013085641 -0.23870596 0.054074299 0.033326246 -0.2172571
정도/Noun -0.049782075 -0.096361794 0.38372454 0.022395512 0.28571701 -0.20388429 0.021844052 -0.089833647 -0.20317134 -0.14557602 -0.057682015 0.0069975699 0.080243677 0.019193579 -0.0003159254 -0.012117221 0.13080721 -0.079651296 -0.03441865 0.06203616 -0.038378991 0.19397111 0.032299619 -0.017441332 0.10814459 0.10276914 0.14366648 0.10302614 0.072986923 0.0055040019 -0.089131944 0.071442679 0.12041214 -0.16553572 -0.17384017 -0.12789074 -0.045215543 -0.10876025 0.17429475 -0.0087247528 -0.12737074 -0.094545119 -0.02047668 0.30979896 0.088372998 0.13610339 -0.19702172 0.092137724 -0.044938244 0.20046067 0.20722665 -0.11240648 0.096973814 -0.16114089 -0.084654957 0.13200122 -0.052657764 0.017696271 0.021573193 -0.016043222 0.27865237 -0.15636526 0.070148163 0.075284384 -0.13953267 0.055563744 0.054858293 0.12292892 -0.078962699 -0.094635449 0.08374384 0.032973725 -0.06725549 -0.015774101 0.13222016 0.2633239 -0.029836664 0.086564742 0.057611991 -0.21981984 -0.0070670079 -0.070957854 0.056808203 -0.085481443 0.043366741 0.1518559 -0.066619217 -0.022451531 0.0046572168 -0.011213999 0.070233412 -0.04772706 -0.14197426 -0.21832067 -0.17712781 0.0046660826 -0.24657308 0.055561263 0.040195048 -0.21663682
대단하다/Adjective -0.044142149 -0.10004949 0.3680636 0.020202158 0.25834984 -0.18562397 0.020241447 -0.096362665 -0.18844973 -0.14877063 -0.05975477 0.0075596655 0.081284203 0.016518407 -0.0033047898 -0.012298361 0.1266735 -0.07800252 -0.023941997 0.065590389 -0.042363692 0.19896494 0.034310594 -0.026889168 0.095036864 0.10445862 0.13405307 0.095021218 0.075666256 0.0072361873 -0.083180591 0.079817221 0.10721754 -0.16519421 -0.17179805 -0.12414812 -0.038771193 -0.10224244 0.15692124 -0.014049637 -0.12408191 -0.09249647 -0.010574487 0.2891511 0.080213346 0.1339815 -0.19323711 0.098053798 -0.033075601 0.18489173 0.19827254 -0.11853471 0.074355632 -0.15853386 -0.081575654 0.11904821 -0.049830664 0.017952878 0.020081051 -0.02326159 0.26791027 -0.14454478 0.067790501 0.089078419 -0.13450409 0.053886086 0.050073359 0.11341888 -0.073631115 -0.093312725 0.079407856 0.032387521 -0.056367047 -0.024007082 0.12552604 0.25972274 -0.030752903 0.086058319 0.044481806 -0.2111548 -0.012545623 -0.079487108 0.04633553 -0.082503341 0.034057081 0.14212643 -0.062406827 -0.022308255 -0.00090063899 -0.015120595 0.06506522 -0.040123332 -0.13853215 -0.22060017 -0.16954279 0.0030406124 -0.22707862 0.048381187 0.04310203 -0.19636992
사람/Noun -0.066447087 -0.099384308 0.38273102 0.032636445 0.26854271 -0.18206502 0.005530288 -0.077238448 -0.19578305 -0.13732634 -0.072727814 0.0055304081 0.08256048 0.026679136 -0.0022036538 -0.015725896 0.13886793 -0.081914499 -0.013502316 0.067063041 -0.030248256 0.21270594 0.046171483 -0.043903448 0.12950845 0.095124722 0.14854103 0.10646368 0.083985969 -0.0014636087 -0.07196743 0.072311096 0.11112871 -0.17032132 -0.17410155 -0.11916313 -0.040357538 -0.09168078 0.16997151 0.0076531228 -0.12463112 -0.10509383 -0.021729216 0.28913647 0.092967823 0.14185992 -0.20683523 0.066326715 -0.049608845 0.20248421 0.19897424 -0.11839402 0.098790124 -0.15273581 -0.080755666 0.13191348 -0.065848216 0.014173155 0.022210376 -0.011937859 0.29121912 -0.13543138 0.063916132 0.10621013 -0.1270875 0.06032994 0.076448463 0.10742966 -0.078061499 -0.11800933 0.081631653 0.046434805 -0.060559999 -0.028902315 0.1600094 0.24172983 -0.011282563 0.086143412 0.072408892 -0.2288561 -0.0082347002 -0.069507651 0.066568255 -0.11896117 0.045992576 0.15765442 -0.064940587 -0.0083473595 -0.0050839609 -0.022356335 0.057101961 -0.024508096 -0.13888866 -0.21244241 -0.16456459 0.0055920058 -0.23905708 0.072656944 0.043628227 -0.21906623
록키/Noun -0.046668049 -0.094028547 0.37642604 0.015984887 0.28309801 -0.20104277 0.015019149 -0.090579264 -0.19980167 -0.15153369 -0.062171731 0.0098186489 0.086878151 0.015251202 -0.0070518502 -0.023297574 0.14784624 -0.080002382 -0.03835978 0.062640227 -0.042313021 0.18801521 0.026207153 -0.028519297 0.11026911 0.088346548 0.14682442 0.10876482 0.075379975 0.0095395744 -0.097519778 0.076795444 0.10687988 -0.16153507 -0.16287145 -0.13033098 -0.045274671 -0.11599261 0.15466379 -0.01640784 -0.11856097 -0.097699381 -0.01231049 0.30103552 0.086580552 0.13354792 -0.18732832 0.086141124 -0.049363703 0.19514789 0.19018358 -0.11976764 0.084977582 -0.16442186 -0.077832095 0.12438239 -0.062514924 0.024276938 0.030637464 -0.019044584 0.28591013 -0.15533313 0.063702539 0.069596037 -0.14008605 0.066256329 0.056636028 0.11461052 -0.077500507 -0.10357823 0.09131854 0.040324755 -0.066204749 -0.014519433 0.14093943 0.26956755 -0.023734231 0.089237273 0.053616717 -0.20682348 -0.022350119 -0.077484682 0.053684574 -0.091884591 0.041125175 0.13944101 -0.072833851 -0.02591381 0.0066504227 -0.014335022 0.072407857 -0.047116157 -0.14426532 -0.21834241 -0.16128685 0.0042541428 -0.23459156 0.053266294 0.038444933 -0.20646103
하나/Noun -0.054578949 -0.10112182 0.36937717 0.0049527991 0.27207053 -0.19911952 0.024398042 -0.087221451 -0.19514245 -0.14018933 -0.055510812 0.0096858116 0.073030956 0.024854783 -0.0054632528 -0.021777717 0.12810865 -0.079119734 -0.032541785 0.063333631 -0.043352395 0.19131379 0.040344957 -0.023164988 0.10998186 0.10092898 0.13707432 0.10450366 0.077684313 0.004222156 -0.089435175 0.079084039 0.11120199 -0.16626656 -0.17480473 -0.1239936 -0.047239773 -0.10647085 0.17005531 -0.0001922591 -0.11706597 -0.091238163 -0.019963665 0.28748998 0.0808791 0.1316793 -0.1945755 0.10027295 -0.047438715 0.19469835 0.1925039 -0.11891576 0.088307999 -0.16386379 -0.075789452 0.13217075 -0.059144016 0.023412682 0.023078805 -0.013380418 0.27046627 -0.14061314 0.063134409 0.076572917 -0.13318452 0.063450135 0.053815372 0.12541446 -0.068622947 -0.086377352 0.08125969 0.034470197 -0.056631472 -0.013749134 0.13987297 0.26603466 -0.017726267 0.090574138 0.048423726 -0.21080926 -0.013406092 -0.070265599 0.060561281 -0.084286705 0.03743365 0.14093617 -0.064663827 -0.027828263 3.9372303e-06 -0.014847146 0.073142663 -0.041893531 -0.13775544 -0.22817022 -0.16486977 0.0050023701 -0.23194866 0.055744249 0.046359196 -0.20004421
가슴/Noun -0.054019902 -0.096577846 0.39647114 0.012687315 0.27411842 -0.19552957 0.022133576 -0.09019129 -0.20889661 -0.1452636 -0.066640228 0.012322361 0.096290082 0.033420119 -0.00097916485 -0.0086084418 0.14571795 -0.073276594 -0.032729257 0.066823572 -0.045602158 0.21111311 0.04611209 -0.025710568 0.1194148 0.10311802 0.1527888 0.11595652 0.081941672 0.003088753 -0.082306832 0.06984704 0.1277502 -0.17671892 -0.18343282 -0.12564781 -0.049282931 -0.10477328 0.16845559 -0.015157701 -0.12427865 -0.097733535 -0.013145557 0.31091329 0.088447221 0.13793321 -0.21172146 0.086022459 -0.036924042 0.20634592 0.21015738 -0.12817071 0.08619678 -0.163514 -0.083507828 0.13755222 -0.064222239 0.031123579 0.016750341 -0.019866096 0.28755146 -0.14978191 0.058446597 0.079552159 -0.13844958 0.061638732 0.058290131 0.11689334 -0.084785499 -0.10773354 0.088169523 0.026969723 -0.068209901 -0.032055497 0.14502509 0.26839069 -0.021708269 0.084192395 0.060154952 -0.23832417 -0.012335986 -0.078048088 0.055266879 -0.10599773 0.03508123 0.15118568 -0.069474399 -0.019914662 -0.0046802321 -0.011482235 0.074223503 -0.044542987 -0.14241995 -0.22453272 -0.1648189 0.0042128107 -0.2499357 0.06579417 0.042635541 -0.22315134
그렇다/Adjective -0.054065909 -0.10308404 0.38888052 0.016768619 0.28260997 -0.20529442 0.014879297 -0.10021385 -0.20205019 -0.15485257 -0.062975332 0.0020703627 0.087167479 0.029485041 0.010300112 -0.017415965 0.1449849 -0.075034633 -0.033566009 0.064293437 -0.04238965 0.21018797 0.030635932 -0.020208646 0.12189783 0.10266726 0.14041984 0.10543963 0.082755372 0.007121555 -0.094941199 0.07493867 0.12339573 -0.16973074 -0.17413531 -0.13831811 -0.05084965 -0.10508553 0.1729555 -0.011839793 -0.12393571 -0.089729533 -0.011867808 0.31682646 0.094442457 0.13069612 -0.20657408 0.091631293 -0.04962879 0.20669007 0.21292783 -0.12794089 0.094008759 -0.16698162 -0.088928968 0.12934791 -0.053515803 0.021021979 0.01921886 -0.011410397 0.29283014 -0.1498453 0.061126269 0.083990961 -0.13493715 0.067589857 0.061650507 0.12251242 -0.078383461 -0.099353053 0.09051089 0.031862877 -0.070081018 -0.024918975 0.13335244 0.27343708 -0.030864231 0.095716722 0.053753145 -0.22164328 -0.0076928074 -0.082507394 0.059455376 -0.088020198 0.046583299 0.14797102 -0.073423341 -0.014600775 0.0029190506 -0.0095970202 0.059863381 -0.041276887 -0.1518933 -0.23465864 -0.17406103 0.0044085919 -0.24416701 0.05251167 0.046415586 -0.21149787
당시/Noun -0.048540507 -0.095223181 0.3784405 0.0089852056 0.27257201 -0.20108834 0.017513476 -0.096386231 -0.20374794 -0.1495581 -0.055932939 0.005893345 0.074919753 0.021923414 0.0020127927 -0.010962225 0.13240656 -0.079596967 -0.028982632 0.057657011 -0.04086351 0.1963363 0.035804968 -0.017509811 0.10997224 0.095820241 0.148296 0.10007476 0.072241493 0.0080335401 -0.089896195 0.075944252 0.12283554 -0.17615984 -0.17714104 -0.1244593 -0.047996111 -0.1014569 0.16548206 -0.011992374 -0.12837943 -0.093042985 -0.0079023791 0.30213508 0.086004458 0.13602425 -0.19669184 0.097084515 -0.039682209 0.19530027 0.20802796 -0.11232288 0.085907795 -0.16574985 -0.078806989 0.12924121 -0.057713665 0.022442168 0.021973494 -0.019563148 0.27654493 -0.15576446 0.0636774 0.082272068 -0.13936599 0.05457234 0.061892558 0.11427249 -0.076198243 -0.10242041 0.080366887 0.026147611 -0.063079461 -0.021526055 0.12986425 0.26283181 -0.030824341 0.094919279 0.056209415 -0.21057861 -0.010269014 -0.082714565 0.054767542 -0.079245716 0.03590443 0.14409009 -0.066654675 -0.023746125 0.0075247781 -0.013738479 0.068051517 -0.04043635 -0.14995536 -0.21801867 -0.17716865 0.0011369596 -0.233512 0.056254409 0.049441736 -0.21408483
잊다/Verb -0.05820258 -0.085881621 0.36265007 0.014130535 0.2558884 -0.18910876 0.012996211 -0.10158158 -0.1872288 -0.13631046 -0.075094216 0.021945098 0.08808732 0.025364043 0.00072286307 -0.0062418538 0.13707186 -0.085636958 -0.02186314 0.064222239 -0.036046334 0.21022153 0.041084267 -0.019394858 0.10125685 0.086411856 0.14203335 0.10658082 0.068998873 0.019356839 -0.067123525 0.074240081 0.10772887 -0.1616247 -0.16918094 -0.12204067 -0.045565385 -0.10234525 0.17465946 0.0047858921 -0.10694055 -0.095184386 -0.0039509279 0.29424727 0.086226657 0.13181275 -0.20497909 0.080261521 -0.029392833 0.19038866 0.2057229 -0.11304758 0.078145333 -0.14249559 -0.081764087 0.12490936 -0.05704451 0.040569596 0.0062623206 -0.016256286 0.27195901 -0.1376206 0.064253658 0.089330807 -0.12418287 0.054094322 0.046950482 0.11728629 -0.072122157 -0.10039527 0.081238844 0.024242869 -0.053989094 -0.013342447 0.12307037 0.25049853 -0.01584659 0.083435647 0.064567611 -0.23315357 -0.0088150157 -0.081713982 0.046986524 -0.10223787 0.036411494 0.14131178 -0.054334413 -0.03178272 -0.012636908 -0.019644886 0.063022062 -0.042328469 -0.13940735 -0.21249978 -0.16377951 0.0077337874 -0.22411704 0.083487056 0.031535018 -0.20670886
무섭다/Adjective -0.056747518 -0.10748915 0.39365306 0.012861518 0.28748819 -0.19512768 0.014412922 -0.10553572 -0.20841794 -0.15321548 -0.054606721 0.0065498473 0.084678836 0.020841371 0.0077165398 -0.012626574 0.13455994 -0.083969548 -0.027449105 0.065209165 -0.039981928 0.2107477 0.036270201 -0.025994269 0.11229174 0.097290784 0.1459289 0.10484277 0.086024761 0.0085075302 -0.091602802 0.075975209 0.12507597 -0.18147145 -0.17860314 -0.13582842 -0.048322417 -0.11315486 0.1737913 -0.013159866 -0.13002643 -0.092617102 -0.016149109 0.31910408 0.092194848 0.14646354 -0.20411091 0.10177268 -0.046184633 0.20415668 0.22052842 -0.12105802 0.089680932 -0.17195407 -0.084302694 0.13529493 -0.05488852 0.026165385 0.024771299 -0.022200139 0.29433972 -0.14989786 0.062921777 0.074670807 -0.1349939 0.059967391 0.067152396 0.12382136 -0.079796284 -0.094644628 0.078175731 0.028617194 -0.073402986 -0.021000221 0.13960831 0.27133209 -0.024366288 0.092548795 0.057000097 -0.22013576 -0.014782979 -0.086304918 0.062885731 -0.086847499 0.045039348 0.15085439 -0.067917109 -0.016835008 -0.00071430905 -0.010335603 0.066805057 -0.040563863 -0.15273015 -0.22838122 -0.18098685 0.0035436684 -0.24373581 0.048766579 0.046323605 -0.2125394
케빈/Noun -0.050558023 -0.10218576 0.3893196 0.011545905 0.2865518 -0.19548158 0.023390122 -0.10069748 -0.20695531 -0.15648235 -0.053838719 0.0049073426 0.08682204 0.022465691 -0.0037397256 -0.022397334 0.13353433 -0.077452503 -0.025457794 0.064075738 -0.051800545 0.2085439 0.031336296 -0.020412603 0.11441948 0.10401392 0.1482688 0.10466292 0.078039087 0.0077707814 -0.093734555 0.070379607 0.12470522 -0.16936328 -0.18281975 -0.12686883 -0.045365814 -0.10841861 0.16449694 -0.015027944 -0.13437434 -0.09966401 -0.020229429 0.31440231 0.089076959 0.14012639 -0.19964084 0.09815114 -0.055473559 0.19986928 0.21400741 -0.12920471 0.087791421 -0.15899611 -0.079686068 0.13615073 -0.057058871 0.026303649 0.015610219 -0.015514066 0.28331357 -0.14669897 0.070870161 0.094604537 -0.1289707 0.049154893 0.068267159 0.11925099 -0.070538089 -0.10557324 0.078378096 0.025565462 -0.070131645 -0.023062328 0.13922365 0.25789109 -0.031637404 0.089234143 0.055871055 -0.21775021 -0.018232966 -0.077096753 0.057610258 -0.09366554 0.04069579 0.14805111 -0.074023806 -0.018917438 0.0046616336 -0.013466851 0.071159713 -0.03438947 -0.13967355 -0.23608093 -0.18145196 0.009193725 -0.24582729 0.06771934 0.052718658 -0.22319499
재다/Verb -0.057185158 -0.10532885 0.37564868 0.013780397 0.26681799 -0.19522235 0.023326036 -0.090146795 -0.19257303 -0.14698835 -0.05671104 0.017768566 0.082792886 0.028193705 -0.0043444633 -0.015792737 0.14015274 -0.076419987 -0.029702039 0.057294242 -0.041756012 0.20209418 0.038676612 -0.028085219 0.1131466 0.094083242 0.14276397 0.10442665 0.075588308 0.0079907645 -0.08607509 0.084008478 0.11236254 -0.16614504 -0.1706818 -0.12639233 -0.047880139 -0.10746071 0.16527422 -0.0095177013 -0.12558095 -0.094700292 -0.0097264368 0.29737288 0.080940835 0.13593248 -0.19821125 0.09422271 -0.039243195 0.19338669 0.20320712 -0.11507501 0.080742158 -0.16890511 -0.08729326 0.12542075 -0.059632555 0.016356625 0.012653003 -0.014517033 0.27489102 -0.15033619 0.06479992 0.082616732 -0.12767836 0.05158696 0.059411455 0.11428654 -0.081752837 -0.10120369 0.0801543 0.037321087 -0.056238811 -0.022204356 0.13487722 0.2525537 -0.026593842 0.090295598 0.051032446 -0.21721849 -0.01334201 -0.085677423 0.054597743 -0.089047924 0.034821987 0.14354728 -0.064486697 -0.027178416 0.008049584 -0.0084839072 0.061614331 -0.042051055 -0.14773488 -0.22403847 -0.17614676 0.001490814 -0.23309276 0.050804861 0.042137396 -0.21568739
차다/Verb -0.056107242 -0.10392702 0.37215066 0.01393509 0.26473069 -0.1906008 0.017782107 -0.10142196 -0.19609994 -0.1450372 -0.061275121 0.014267258 0.088596001 0.031146592 8.8560701e-05 -0.013313587 0.1358815 -0.070609026 -0.026700698 0.054307371 -0.041502368 0.20739286 0.034533296 -0.026227115 0.10957853 0.091597684 0.13593578 0.10563128 0.066656917 0.012116409 -0.085783459 0.06497436 0.12579353 -0.17071618 -0.1783473 -0.12672441 -0.053022884 -0.11085879 0.17403385 0.004612728 -0.12032449 -0.09214969 -0.016804213 0.29697427 0.088331401 0.14212447 -0.1957338 0.097988307 -0.049860504 0.18799002 0.21395627 -0.12273102 0.093704365 -0.15636976 -0.083582498 0.12346554 -0.054992586 0.025572862 0.019962421 -0.021149229 0.28296784 -0.13877952 0.055141293 0.083147734 -0.1257159 0.064269349 0.063645974 0.11357921 -0.071482562 -0.097641245 0.073151812 0.025831373 -0.060399584 -0.02679497 0.13846806 0.25321013 -0.019516001 0.080286227 0.063168287 -0.2185096 -0.011679392 -0.080794841 0.053447913 -0.085168876 0.040715307 0.14857411 -0.065009169 -0.017444476 -0.0032281815 -0.010310188 0.061108951 -0.041924041 -0.15353777 -0.21570839 -0.16795525 -0.0037281152 -0.24288289 0.063230596 0.045651074 -0.20907602
대부/Noun -0.045461707 -0.10017186 0.37200025 0.00096238923 0.2724174 -0.18999162 0.024784729 -0.083945185 -0.19881845 -0.14182006 -0.06102366 0.010028704 0.081914201 0.021292498 -0.0068312436 -0.024867244 0.14008404 -0.06477505 -0.028579548 0.056406207 -0.044217337 0.19916965 0.027875818 -0.025871631 0.11488491 0.096994974 0.14646535 0.10463646 0.082243681 0.001296657 -0.086857162 0.068945505 0.10790821 -0.16156252 -0.1686615 -0.13039386 -0.040521234 -0.10392971 0.16414453 -0.0032399951 -0.12326815 -0.096534625 -0.02187857 0.28808799 0.087344408 0.13008422 -0.18745658 0.084937908 -0.053189721 0.19215664 0.19615854 -0.12492039 0.079746298 -0.16139099 -0.087357268 0.13443561 -0.063305721 0.016108138 0.015498924 -0.0086373137 0.27954775 -0.13611488 0.058652412 0.0879784 -0.13467564 0.052744932 0.058405384 0.10928997 -0.065286212 -0.091305323 0.082914971 0.032549474 -0.057747472 -0.028261693 0.1413728 0.25748169 -0.018969653 0.093519427 0.054790657 -0.21417622 -0.021353131 -0.080123447 0.059821293 -0.085174456 0.046565879 0.14079538 -0.056976795 -0.020817673 0.003899633 -0.014682014 0.072740734 -0.047137566 -0.1318597 -0.21668221 -0.17221643 0.0075007882 -0.23031534 0.064160764 0.048198145 -0.19989806
한번/Noun -0.057182614 -0.095107682 0.37487283 0.017078198 0.27554566 -0.1966821 0.015690317 -0.099864781 -0.20547454 -0.15420523 -0.058408774 0.012705845 0.077934064 0.01856718 0.007827308 -0.015469442 0.13620387 -0.074986033 -0.023812938 0.062389322 -0.038981955 0.18205817 0.023092384 -0.017709058 0.10805695 0.10460506 0.14490213 0.10866465 0.092399672 0.018123524 -0.087081298 0.089480288 0.11845217 -0.17746279 -0.16918878 -0.12865736 -0.057373367 -0.10452826 0.17277499 -0.0029626137 -0.11643725 -0.095320314 -0.010068619 0.30999815 0.082628652 0.12605922 -0.18693011 0.095672444 -0.052628644 0.20514292 0.19417971 -0.10738342 0.09190242 -0.16535524 -0.080952726 0.13128607 -0.054458395 0.014729423 0.021383382 -0.018595219 0.27959275 -0.15728943 0.070213273 0.076275773 -0.1416261 0.065637976 0.060847521 0.1171964 -0.07031551 -0.093836688 0.076642156 0.033701696 -0.062402643 -0.0156653 0.12609282 0.2612789 -0.024786161 0.085861504 0.051143721 -0.2212602 -0.010290509 -0.070984013 0.057069208 -0.077955231 0.040946901 0.13924357 -0.070710622 -0.023820443 -0.0008829711 -0.012969828 0.069084689 -0.051179953 -0.1297805 -0.23379008 -0.17420703 0.0016958187 -0.22934036 0.044923257 0.044973396 -0.21043584
영원하다/Adjective -0.066354513 -0.10497505 0.38789713 0.0038645486 0.27106166 -0.19004093 0.0092100063 -0.093737766 -0.20681629 -0.14078683 -0.069153421 0.013867942 0.089634158 0.033493772 -0.0053562638 -0.016198112 0.14033347 -0.079139605 -0.034836844 0.053849567 -0.037288819 0.21425496 0.046369229 -0.023467548 0.12022094 0.093748853 0.14957254 0.11949595 0.074736632 -0.0033641518 -0.078440867 0.072741888 0.11742025 -0.17615926 -0.18460388 -0.12206509 -0.037172779 -0.095403522 0.16994743 -0.015033588 -0.13160603 -0.10293756 -0.011033155 0.29520762 0.086844303 0.15166496 -0.20825306 0.068989895 -0.050760251 0.19790404 0.20953046 -0.13476336 0.08917661 -0.14869846 -0.086901776 0.12793165 -0.060941178 0.024926774 0.024359478 -0.019214477 0.28964669 -0.13835034 0.056020789 0.097017556 -0.13487327 0.050706737 0.061725523 0.11125539 -0.079889379 -0.10184988 0.08052475 0.043690182 -0.062790364 -0.020395961 0.1437785 0.26365334 -0.027897842 0.093251191 0.060412105 -0.21913609 -0.012775725 -0.072898492 0.060129732 -0.10137298 0.040343195 0.1534306 -0.069367744 -0.0085774316 -0.00041972095 -0.018365338 0.073497593 -0.027317213 -0.14965889 -0.22661121 -0.16025892 0.014183924 -0.24233954 0.081996083 0.052521806 -0.20357223
추억/Noun -0.055103034 -0.098721556 0.37575656 0.0091301566 0.28043038 -0.19284423 0.011526454 -0.090570182 -0.19754931 -0.14910221 -0.058388859 0.007431041 0.084379055 0.023087136 0.0042240345 -0.017763942 0.13907568 -0.074654453 -0.025190698 0.06179658 -0.041702066 0.2024833 0.041823801 -0.016492963 0.10696854 0.10079414 0.14409667 0.10928411 0.074489325 0.012275445 -0.091629796 0.071473554 0.11763885 -0.17470169 -0.17900057 -0.12730072 -0.050784476 -0.10695577 0.1634849 -0.011909639 -0.12010057 -0.099941663 -0.019677918 0.30100134 0.092938915 0.13354161 -0.20249408 0.094062269 -0.043248367 0.20072563 0.20940466 -0.12064406 0.090070292 -0.16728917 -0.088055499 0.13460849 -0.053072806 0.025097327 0.019689318 -0.018688004 0.28297853 -0.14156632 0.062435657 0.081841908 -0.12927435 0.049936466 0.063571788 0.11432417 -0.072372749 -0.10432896 0.08417058 0.027743926 -0.063107088 -0.022044543 0.14562422 0.26222935 -0.020884758 0.090401843 0.058698032 -0.21952057 -0.0057800189 -0.085430324 0.063981272 -0.09240748 0.037048813 0.14801881 -0.071238726 -0.023579501 0.0021407509 -0.018563911 0.059478294 -0.040277477 -0.14703704 -0.22571106 -0.17271516 0.006670991 -0.24456555 0.055719674 0.043204665 -0.21055451
이상/Noun -0.053592604 -0.092498101 0.37296498 0.012765736 0.2650353 -0.19357613 0.022673776 -0.095791906 -0.19518471 -0.14117719 -0.06231017 0.0059846216 0.076162614 0.024321809 0.0026242281 -0.020184286 0.13328083 -0.075297564 -0.032091368 0.064315096 -0.039512713 0.2044013 0.045720074 -0.019830598 0.10823347 0.092373803 0.14517419 0.09787003 0.079677425 0.0082684727 -0.08325211 0.078666039 0.11575939 -0.16248228 -0.16020115 -0.13017705 -0.033582844 -0.095414557 0.1625264 0.0053432542 -0.11312646 -0.091844782 -0.0108355 0.29388964 0.08226762 0.13119371 -0.18468884 0.084538318 -0.050839372 0.19076207 0.19219345 -0.10989488 0.084113032 -0.15403843 -0.071060471 0.1262612 -0.053096179 0.024108373 0.01974187 -0.010041336 0.26739284 -0.14202484 0.054802496 0.084313184 -0.13117765 0.066456892 0.06235401 0.11186074 -0.067388497 -0.10073607 0.082817204 0.035214972 -0.061534233 -0.019139169 0.12882113 0.25884402 -0.026128015 0.082829334 0.047274508 -0.2053019 -0.0048056305 -0.071573131 0.059170891 -0.080530845 0.043292761 0.14571919 -0.057371922 -0.010449308 -0.0071908659 -0.015198795 0.071615502 -0.040858902 -0.14015283 -0.21379048 -0.16360286 0.0018146432 -0.23807235 0.062988892 0.038382076 -0.20021917
제일/Noun -0.055939462 -0.10077056 0.37977743 0.019752422 0.27469206 -0.19906871 0.016199591 -0.094457023 -0.19451194 -0.15057667 -0.050358385 0.0065707536 0.092401743 0.027305136 -0.011277463 -0.0096094916 0.14894234 -0.06535466 -0.037153188 0.056234386 -0.034374632 0.20507897 0.020611307 -0.02955847 0.11768716 0.095266551 0.13222802 0.10271648 0.070778213 0.0064116279 -0.088529192 0.082063578 0.11070683 -0.17153996 -0.18391117 -0.12593165 -0.04633791 -0.12165635 0.16761072 0.0010274424 -0.12455878 -0.090245008 -0.015654642 0.30055588 0.083526894 0.12529694 -0.18871692 0.098022781 -0.038454041 0.18959983 0.19350865 -0.12814869 0.086303629 -0.16364959 -0.075205997 0.11806212 -0.055822551 0.014400018 0.026222628 -0.0043882048 0.28064781 -0.15245183 0.053129554 0.072898403 -0.13205968 0.07252606 0.065651082 0.11175004 -0.07753329 -0.10927626 0.082274437 0.045323908 -0.06215737 -0.015686141 0.14014491 0.26408118 -0.02225275 0.084763207 0.064195275 -0.21093071 -0.020763703 -0.080358818 0.067701302 -0.095955506 0.047699094 0.14515215 -0.068839662 -0.023046115 0.0006406529 -0.0061063333 0.06255731 -0.057113297 -0.14417331 -0.22906567 -0.16103087 -0.0020224778 -0.23540916 0.045816183 0.047777742 -0.21843822
공포/Noun -0.051323388 -0.10488242 0.38286766 0.012874366 0.28364882 -0.2006323 0.016637489 -0.097487569 -0.20655195 -0.14216202 -0.06816151 0.015979959 0.085431196 0.02136155 0.0026573807 -0.017890505 0.14536732 -0.079146802 -0.030330731 0.055081658 -0.035953209 0.2033294 0.042120427 -0.025834745 0.11799785 0.097291023 0.14268635 0.10971959 0.084988549 0.013244795 -0.090121277 0.076725207 0.11299565 -0.16985041 -0.17980199 -0.12694149 -0.049447842 -0.10319863 0.16621913 -0.016097931 -0.12315148 -0.10342839 -0.02255672 0.30942595 0.08935257 0.13306461 -0.19604604 0.093060218 -0.044550497 0.20534682 0.21166836 -0.11990798 0.089570045 -0.16905108 -0.079636596 0.12784351 -0.059589468 0.018070111 0.023151929 -0.0078626107 0.28483537 -0.15242003 0.061408952 0.081751913 -0.13914883 0.05685176 0.065368287 0.12046222 -0.075699925 -0.10345048 0.086101256 0.032534305 -0.062237751 -0.016363168 0.14604279 0.26877525 -0.019662671 0.092024669 0.057683617 -0.21449699 -0.015925217 -0.087649636 0.054940522 -0.090492472 0.046685025 0.15162176 -0.072143249 -0.014965028 0.0069591934 -0.018513039 0.06300424 -0.035898231 -0.14331125 -0.22105262 -0.17460597 0.011370337 -0.24161139 0.062366631 0.04000837 -0.21898387
